{"learner":{"attributes":{"scikit_learn":"{\"_estimator_type\": \"regressor\"}"},"feature_names":[],"feature_types":[],"gradient_booster":{"model":{"gbtree_model_param":{"num_parallel_tree":"1","num_trees":"70"},"iteration_indptr":[0,1,2,3,4,5,6,7,8,9,10,11,12,13,14,15,16,17,18,19,20,21,22,23,24,25,26,27,28,29,30,31,32,33,34,35,36,37,38,39,40,41,42,43,44,45,46,47,48,49,50,51,52,53,54,55,56,57,58,59,60,61,62,63,64,65,66,67,68,69,70],"tree_info":[0,0,0,0,0,0,0,0,0,0,0,0,0,0,0,0,0,0,0,0,0,0,0,0,0,0,0,0,0,0,0,0,0,0,0,0,0,0,0,0,0,0,0,0,0,0,0,0,0,0,0,0,0,0,0,0,0,0,0,0,0,0,0,0,0,0,0,0,0,0],"trees":[{"base_weights":[4.7975632E2,-6.9073945E4,2.880467E5,-3.6555728E5,-2.8507387E4,-3.645889E5,3.59099E5,-3.0173728E5,-7.109322E4,-7.674952E4,2.5989152E4,-2.6174034E5,-7.0796914E4,2.4549E5,7.0946825E5,-3.255163E5,2.3572973E5,-1.2569867E5,-4.872654E4,6.0658113E4,-5.1475863E4,-2.701654E5,-1.147175E4,3.9402616E5,1.5661955E5,3.784384E5,9.15719E5,-5.8905953E4,-7.000571E4,-2.001515E4,-3.292131E4,2.8196809E4,-1.1888134E4,1.1008363E4,1.5322625E5,-1.1152592E4,8.50712E4,-1.3891661E4,-5.383452E4,5.852378E4,1.1898153E5,2.5775916E4,1.1389635E5,9.9323234E4,1.6577594E4,2.3498755E5,1.2933945E5],"categories":[],"categories_nodes":[],"categories_segments":[],"categories_sizes":[],"default_left":[0,0,0,0,0,0,0,0,0,0,0,0,0,0,0,0,0,0,0,0,0,0,0,0,0,0,0,0,0,0,0,0,0,0,0,0,0,0,0,0,0,0,0,0,0,0,0],"id":0,"left_children":[1,3,5,7,9,11,13,15,-1,17,19,21,-1,23,25,27,-1,29,31,33,35,37,-1,39,41,43,45,-1,-1,-1,-1,-1,-1,-1,-1,-1,-1,-1,-1,-1,-1,-1,-1,-1,-1,-1,-1],"loss_changes":[1.4167952E15,6.8601526E14,6.3986906E14,6.223005E11,1.3191354E14,5.9139686E10,4.9508088E14,6.935847E12,0E0,3.650172E13,6.3279292E13,1.4697628E10,0E0,1.2398316E14,2.0761966E14,2.7202159E10,0E0,9.570764E12,4.1733375E13,4.5094833E13,2.1957274E13,6.744965E9,0E0,7.096779E13,5.952093E13,4.6112044E13,1.376682E14,0E0,0E0,0E0,0E0,0E0,0E0,0E0,0E0,0E0,0E0,0E0,0E0,0E0,0E0,0E0,0E0,0E0,0E0,0E0,0E0],"parents":[2147483647,0,0,1,1,2,2,3,3,4,4,5,5,6,6,7,7,9,9,10,10,11,11,13,13,14,14,15,15,17,17,18,18,19,19,20,20,21,21,23,23,24,24,25,25,26,26],"right_children":[2,4,6,8,10,12,14,16,-1,18,20,22,-1,24,26,28,-1,30,32,34,36,38,-1,40,42,44,46,-1,-1,-1,-1,-1,-1,-1,-1,-1,-1,-1,-1,-1,-1,-1,-1,-1,-1,-1,-1],"split_conditions":[3.6809182E0,0E0,0E0,-1E0,0E0,-3E0,6.2925715E0,-2E0,-7.109322E4,-6.155465E-1,1E0,8.222604E-1,-7.0796914E4,-4.7619048E-1,-9.6622175E-1,-3E0,2.3572973E5,2.5E-1,-2.4094207E0,2.8188417E0,2.8188417E0,-8.4273916E-1,-1.147175E4,5.900813E-1,1.6044545E-1,1E0,-4.7619048E-1,-5.8905953E4,-7.000571E4,-2.001515E4,-3.292131E4,2.8196809E4,-1.1888134E4,1.1008363E4,1.5322625E5,-1.1152592E4,8.50712E4,-1.3891661E4,-5.383452E4,5.852378E4,1.1898153E5,2.5775916E4,1.1389635E5,9.9323234E4,1.6577594E4,2.3498755E5,1.2933945E5],"split_indices":[0,30,30,30,1,30,0,30,0,35,27,19,0,21,14,30,0,25,1,1,1,24,0,10,14,27,21,0,0,0,0,0,0,0,0,0,0,0,0,0,0,0,0,0,0,0,0],"split_type":[0,0,0,0,0,0,0,0,0,0,0,0,0,0,0,0,0,0,0,0,0,0,0,0,0,0,0,0,0,0,0,0,0,0,0,0,0,0,0,0,0,0,0,0,0,0,0],"sum_hessian":[7.0833E4,5.7038E4,1.3795E4,6.864E3,5.0174E4,1.354E3,1.2441E4,1.8E2,6.684E3,2.6614E4,2.356E4,1.7E1,1.337E3,9.396E3,3.045E3,1.78E2,2E0,9.688E3,1.6926E4,1.6276E4,7.284E3,1.6E1,1E0,3.516E3,5.88E3,1.17E3,1.875E3,1.18E2,6E1,6.448E3,3.24E3,1.036E3,1.589E4,1.6193E4,8.3E1,7.195E3,8.9E1,1E0,1.5E1,2.485E3,1.031E3,5.578E3,3.02E2,8.01E2,3.69E2,8.49E2,1.026E3],"tree_param":{"num_deleted":"0","num_feature":"39","num_nodes":"47","size_leaf_vector":"1"}},{"base_weights":[-1.3338876E3,-3.699445E4,4.3840625E5,-2.9534588E5,-1.0984613E3,3.2612812E5,7.200714E5,-2.4091406E5,-5.7321805E4,-3.5095926E4,1.7863275E5,-2.823072E5,3.6119156E5,-5.5621027E4,7.771342E5,-2.4383917E5,-9.951738E3,-5.3447867E4,5.3084645E4,1.0937017E5,4.4628706E5,5.4214156E4,-5.6639707E4,5.9370256E5,2.5581095E5,5.0705766E5,1.00137794E6,-4.766907E4,-1.4473512E4,-4.647576E3,-2.0263688E4,1.7809086E4,-1.6456788E3,3.6430785E4,2.541512E3,1.4797933E5,2.582662E4,-3.908178E4,1.539795E5,7.340621E4,1.5186098E5,2.910331E4,8.0569984E4,1.5245588E5,7.171694E4,2.2696789E5,1.5138772E5],"categories":[],"categories_nodes":[],"categories_segments":[],"categories_sizes":[],"default_left":[0,0,0,0,0,0,0,0,0,0,0,0,0,0,0,0,0,0,0,0,0,0,0,0,0,0,0,0,0,0,0,0,0,0,0,0,0,0,0,0,0,0,0,0,0,0,0],"id":1,"left_children":[1,3,5,7,9,11,13,15,-1,17,19,21,23,-1,25,27,-1,29,31,33,35,37,-1,39,41,43,45,-1,-1,-1,-1,-1,-1,-1,-1,-1,-1,-1,-1,-1,-1,-1,-1,-1,-1,-1,-1],"loss_changes":[1.1125787E15,6.0861E14,1.680726E14,2.5494657E11,3.5210008E14,8.13199E13,8.73689E13,5.065933E10,0E0,7.842005E13,1.6987441E14,7.343094E11,8.805592E13,0E0,8.640011E13,2.6933723E10,0E0,6.0486385E13,2.0003858E13,5.5239512E13,1.874056E14,1.4892019E12,0E0,4.5611076E13,4.187157E13,2.4725338E13,2.8461138E13,0E0,0E0,0E0,0E0,0E0,0E0,0E0,0E0,0E0,0E0,0E0,0E0,0E0,0E0,0E0,0E0,0E0,0E0,0E0,0E0],"parents":[2147483647,0,0,1,1,2,2,3,3,4,4,5,5,6,6,7,7,9,9,10,10,11,11,12,12,14,14,15,15,17,17,18,18,19,19,20,20,21,21,23,23,24,24,25,25,26,26],"right_children":[2,4,6,8,10,12,14,16,-1,18,20,22,24,-1,26,28,-1,30,32,34,36,38,-1,40,42,44,46,-1,-1,-1,-1,-1,-1,-1,-1,-1,-1,-1,-1,-1,-1,-1,-1,-1,-1,-1,-1],"split_conditions":[1.1655356E0,0E0,1.9547565E0,-3E0,3.6809182E0,0E0,0E0,7.152845E-1,-5.7321805E4,3.2037017E-1,8.5714287E-1,-1E0,-4.7619048E-1,-5.5621027E4,2.2351831E-1,8.6861867E-1,-9.951738E3,2.5E-1,3.75E-1,-2.2292683E-1,5.917073E-1,0E0,-5.6639707E4,-5.714286E-1,-6.0519433E-1,-2.3918699E-1,-2.2780488E-1,-4.766907E4,-1.4473512E4,-4.647576E3,-2.0263688E4,1.7809086E4,-1.6456788E3,3.6430785E4,2.541512E3,1.4797933E5,2.582662E4,-3.908178E4,1.539795E5,7.340621E4,1.5186098E5,2.910331E4,8.0569984E4,1.5245588E5,7.171694E4,2.2696789E5,1.5138772E5],"split_indices":[7,30,7,30,0,30,30,10,0,7,26,30,21,0,34,31,0,25,25,10,10,18,0,21,14,10,10,0,0,0,0,0,0,0,0,0,0,0,0,0,0,0,0,0,0,0,0],"split_type":[0,0,0,0,0,0,0,0,0,0,0,0,0,0,0,0,0,0,0,0,0,0,0,0,0,0,0,0,0,0,0,0,0,0,0,0,0,0,0,0,0,0,0,0,0,0,0],"sum_hessian":[7.0947E4,6.5626E4,5.321E3,8.005E3,5.7621E4,3.806E3,1.515E3,1.13E2,7.892E3,4.8456E4,9.165E3,2.07E2,3.599E3,8.1E1,1.434E3,1.11E2,2E0,4.0109E4,8.347E3,7.282E3,1.883E3,6E0,2.01E2,1.121E3,2.478E3,6.52E2,7.82E2,1.09E2,2E0,2.5471E4,1.4638E4,5.115E3,3.232E3,4.003E3,3.279E3,9.33E2,9.5E2,5E0,1E0,5.29E2,5.92E2,1.496E3,9.82E2,2.12E2,4.4E2,4.37E2,3.45E2],"tree_param":{"num_deleted":"0","num_feature":"39","num_nodes":"47","size_leaf_vector":"1"}},{"base_weights":[1.2958877E3,-3.7189105E4,2.7761338E5,-4.6234883E4,-1.4775626E4,2.133699E5,6.374882E5,-3.6785805E4,1.15328766E5,1.5730612E5,4.3657034E5,4.2492038E5,8.26778E5,-1.3736088E4,-9.197366E4,5.4215496E4,3.3386516E5,-4.586896E4,1.7512192E5,-4.5394766E4,4.7463175E5,3.489625E5,7.1763075E5,-4.387385E4,8.714057E5,-1.1566055E4,3.0395232E3,-2.857796E4,-1.3866951E4,2.030748E4,-5.5209033E3,9.606184E4,1.9703727E4,2.6146426E4,7.112147E4,1.3778061E5,6.799178E4,1.1925867E5,4.5796504E4,1.2056034E5,1.968416E5,1.930939E5,1.16978984E5],"categories":[],"categories_nodes":[],"categories_segments":[],"categories_sizes":[],"default_left":[0,0,0,0,0,0,0,0,0,0,0,0,0,0,0,0,0,0,0,0,0,0,0,0,0,0,0,0,0,0,0,0,0,0,0,0,0,0,0,0,0,0,0],"id":2,"left_children":[1,3,5,-1,7,9,11,13,15,17,19,21,23,25,27,29,31,-1,33,-1,35,37,39,-1,41,-1,-1,-1,-1,-1,-1,-1,-1,-1,-1,-1,-1,-1,-1,-1,-1,-1,-1],"loss_changes":[7.548596E14,2.8158483E14,2.0049592E14,0E0,1.605818E14,9.2093024E13,5.2520035E13,6.10095E13,1.083482E14,4.1397177E13,3.786138E13,1.3556678E13,3.2823214E13,4.5821878E13,1.598539E13,2.6595861E13,6.675067E13,0E0,4.334523E13,0E0,4.0684346E13,1.4713488E13,2.971442E12,0E0,2.181877E13,0E0,0E0,0E0,0E0,0E0,0E0,0E0,0E0,0E0,0E0,0E0,0E0,0E0,0E0,0E0,0E0,0E0,0E0],"parents":[2147483647,0,0,1,1,2,2,4,4,5,5,6,6,7,7,8,8,9,9,10,10,11,11,12,12,13,13,14,14,15,15,16,16,18,18,20,20,21,21,22,22,24,24],"right_children":[2,4,6,-1,8,10,12,14,16,18,20,22,24,26,28,30,32,-1,34,-1,36,38,40,-1,42,-1,-1,-1,-1,-1,-1,-1,-1,-1,-1,-1,-1,-1,-1,-1,-1,-1,-1],"split_conditions":[8.397805E-1,-8.215528E-1,2.101867E0,-4.6234883E4,3.6809182E0,7.2727275E-1,6.2925715E0,1E0,8.5714287E-1,-3.2398534E0,-3.2398534E0,1.6044545E-1,-8.223985E1,-5.0738156E-1,-1.0217924E0,0E0,-5.2380955E-1,-4.586896E4,-1.130492E-1,-4.5394766E4,-4.7619048E-1,-4.7619048E-1,1.2936526E1,-4.387385E4,1E0,-1.1566055E4,3.0395232E3,-2.857796E4,-1.3866951E4,2.030748E4,-5.5209033E3,9.606184E4,1.9703727E4,2.6146426E4,7.112147E4,1.3778061E5,6.799178E4,1.1925867E5,4.5796504E4,1.2056034E5,1.968416E5,1.930939E5,1.16978984E5],"split_indices":[7,19,7,0,0,29,0,27,26,8,8,14,8,7,14,26,21,0,14,0,21,21,15,0,27,0,0,0,0,0,0,0,0,0,0,0,0,0,0,0,0,0,0],"split_type":[0,0,0,0,0,0,0,0,0,0,0,0,0,0,0,0,0,0,0,0,0,0,0,0,0,0,0,0,0,0,0,0,0,0,0,0,0,0,0,0,0,0,0],"sum_hessian":[7.0983E4,6.2306E4,8.677E3,6.232E3,5.6074E4,7.364E3,1.313E3,4.7961E4,8.113E3,5.887E3,1.477E3,6.2E2,6.93E2,3.3832E4,1.4129E4,6.341E3,1.772E3,2.54E2,5.633E3,7.9E1,1.398E3,4.94E2,1.26E2,2.8E1,6.65E2,1.32E4,2.0632E4,3.781E3,1.0348E4,3.932E3,2.409E3,1.042E3,7.3E2,4.663E3,9.7E2,4.77E2,9.21E2,1.45E2,3.49E2,9.8E1,2.8E1,4.5E2,2.15E2],"tree_param":{"num_deleted":"0","num_feature":"39","num_nodes":"43","size_leaf_vector":"1"}},{"base_weights":[8.1264844E2,-2.2735586E4,3.0405194E5,-2.0092705E5,1.5118536E3,-2.2589398E5,3.3671775E5,-2.3089536E5,-1.9356308E5,-2.1534771E4,1.2219166E5,-5.1997562E4,-2.317719E5,2.2907972E5,5.383458E5,-2.408296E5,-4.143639E4,2.1016066E5,-1.9413919E5,-5.8534254E4,7.7290386E3,1.1621053E4,1.8095147E5,1.2573818E5,-3.622063E4,-2.1285483E5,-2.714655E5,5.268142E5,1.9856697E5,7.263411E5,3.9450694E5,-4.786751E4,-3.8606984E4,-3.7414586E4,-5.2398273E4,-2.1876016E4,-8.694949E3,7.272025E3,-9.04841E3,1.1688972E4,-1.7004812E4,6.846067E4,2.3040504E4,-3.9223848E4,-4.7302445E4,-5.4938375E4,-4.1580016E4,6.834106E4,1.7068592E5,3.1209102E4,8.978013E4,8.433533E4,1.6469453E5,3.7450938E4,1.142476E5],"categories":[],"categories_nodes":[],"categories_segments":[],"categories_sizes":[],"default_left":[0,0,0,0,0,0,0,0,0,0,0,0,0,0,0,0,0,0,0,0,0,0,0,0,0,0,0,0,0,0,0,0,0,0,0,0,0,0,0,0,0,0,0,0,0,0,0,0,0,0,0,0,0,0,0],"id":3,"left_children":[1,3,5,7,9,11,13,15,17,19,21,23,25,27,29,31,-1,-1,33,35,37,39,41,-1,-1,43,45,47,49,51,53,-1,-1,-1,-1,-1,-1,-1,-1,-1,-1,-1,-1,-1,-1,-1,-1,-1,-1,-1,-1,-1,-1,-1,-1],"loss_changes":[5.0587907E14,2.8403793E14,8.8449315E13,1.6929889E12,1.6094315E14,2.915272E11,1.042456E14,2.0766838E11,4.873261E12,5.260891E13,6.0284564E13,1.1640068E12,1.577226E11,2.839408E13,4.4953107E13,2.0784035E11,0E0,0E0,3.7114557E11,1.5913785E13,4.4090595E13,1.5625331E13,6.476007E13,0E0,0E0,1.468321E10,1.190658E9,1.7636084E13,2.8129662E13,2.5809096E13,3.725285E13,0E0,0E0,0E0,0E0,0E0,0E0,0E0,0E0,0E0,0E0,0E0,0E0,0E0,0E0,0E0,0E0,0E0,0E0,0E0,0E0,0E0,0E0,0E0,0E0],"parents":[2147483647,0,0,1,1,2,2,3,3,4,4,5,5,6,6,7,7,8,8,9,9,10,10,11,11,12,12,13,13,14,14,15,15,18,18,19,19,20,20,21,21,22,22,25,25,26,26,27,27,28,28,29,29,30,30],"right_children":[2,4,6,8,10,12,14,16,18,20,22,24,26,28,30,32,-1,-1,34,36,38,40,42,-1,-1,44,46,48,50,52,54,-1,-1,-1,-1,-1,-1,-1,-1,-1,-1,-1,-1,-1,-1,-1,-1,-1,-1,-1,-1,-1,-1,-1,-1],"split_conditions":[1.2055916E0,0E0,0E0,0E0,3.6809182E0,-5.4335485E0,4.3926883E-1,1E0,-1.0802687E0,-3.5405934E-1,-9.4624543E-1,-1.0766367E0,0E0,0E0,-4.7619048E-1,8.397805E-1,-4.143639E4,2.1016066E5,8.6780435E-1,-1.196369E0,3.75E-1,1E0,-5.2380955E-1,1.2573818E5,-3.622063E4,1.9547565E0,-1.904762E-1,-9.8075E-1,4.17959E-1,-1.0108962E0,-5.1003414E-1,-4.786751E4,-3.8606984E4,-3.7414586E4,-5.2398273E4,-2.1876016E4,-8.694949E3,7.272025E3,-9.04841E3,1.1688972E4,-1.7004812E4,6.846067E4,2.3040504E4,-3.9223848E4,-4.7302445E4,-5.4938375E4,-4.1580016E4,6.834106E4,1.7068592E5,3.1209102E4,8.978013E4,8.433533E4,1.6469453E5,3.7450938E4,1.142476E5],"split_indices":[7,30,30,18,0,11,34,27,14,7,14,14,14,27,21,7,0,0,7,7,25,27,21,0,0,7,21,14,14,14,14,0,0,0,0,0,0,0,0,0,0,0,0,0,0,0,0,0,0,0,0,0,0,0,0],"split_type":[0,0,0,0,0,0,0,0,0,0,0,0,0,0,0,0,0,0,0,0,0,0,0,0,0,0,0,0,0,0,0,0,0,0,0,0,0,0,0,0,0,0,0,0,0,0,0,0,0,0,0,0,0,0,0],"sum_hessian":[7.0842E4,6.5738E4,5.104E3,7.873E3,5.7865E4,2.96E2,4.808E3,1.547E3,6.326E3,4.8587E4,9.278E3,1E1,2.86E2,3.136E3,1.672E3,9.65E2,5.82E2,2E0,6.324E3,2.1457E4,2.713E4,3.22E3,6.058E3,1E0,9E0,1.98E2,8.8E1,2.9E2,2.846E3,7.23E2,9.49E2,8.31E2,1.34E2,6.256E3,6.8E1,4.291E3,1.7166E4,1.7529E4,9.601E3,2.161E3,1.059E3,1.598E3,4.46E3,1.55E2,4.3E1,6.9E1,1.9E1,1.96E2,9.4E1,2.496E3,3.5E2,2.18E2,5.05E2,4.69E2,4.8E2],"tree_param":{"num_deleted":"0","num_feature":"39","num_nodes":"55","size_leaf_vector":"1"}},{"base_weights":[2.569931E2,-1.588558E4,3.105832E5,-1.5292747E5,-1.22168E3,2.6547838E5,6.041136E5,-8.4516E4,-1.5639503E5,-2.119913E4,9.217631E4,4.2679728E5,1.7368138E5,5.295187E5,8.76047E5,-2.9782459E4,-5.762431E4,-1.5545652E5,-2.1334088E5,-1.5032278E3,-6.726171E4,4.6870395E4,2.0670488E5,5.456128E4,5.178014E5,1.3437016E5,4.1781744E5,4.092886E5,6.8748875E5,7.045187E5,1.0116279E6,-9.798119E3,-3.1400623E4,-3.0042408E4,-3.6279035E4,-4.2928117E4,-2.4531854E4,-2.3670598E3,1.3500664E4,4.8347485E3,-1.4700132E4,1.9205656E4,-1.0249048E4,1.01887234E5,1.2437582E4,4.6878773E4,-1.5828222E4,1.079454E5,4.359222E3,4.1715844E4,3.3696902E3,1.4984609E4,9.1995984E4,1.1783033E5,6.2863668E4,-2.9722285E4,1.3971536E5,5.2836125E4,1.5478838E5,1.5900612E5,2.1685767E5],"categories":[],"categories_nodes":[],"categories_segments":[],"categories_sizes":[],"default_left":[0,0,0,0,0,0,0,0,0,0,0,0,0,0,0,0,0,0,0,0,0,0,0,0,0,0,0,0,0,0,0,0,0,0,0,0,0,0,0,0,0,0,0,0,0,0,0,0,0,0,0,0,0,0,0,0,0,0,0,0,0],"id":4,"left_children":[1,3,5,7,9,11,13,15,17,19,21,23,25,27,29,-1,31,33,35,37,39,41,43,45,47,49,51,53,55,57,59,-1,-1,-1,-1,-1,-1,-1,-1,-1,-1,-1,-1,-1,-1,-1,-1,-1,-1,-1,-1,-1,-1,-1,-1,-1,-1,-1,-1,-1,-1],"loss_changes":[3.558071E14,1.35675844E14,4.6337194E13,1.5348972E12,1.1380038E14,4.5032833E13,9.009147E12,5.821049E11,2.9871833E11,4.558347E13,5.575458E13,3.7369755E13,1.8591387E13,6.726942E12,1.5896328E12,0E0,1.6045284E11,2.4243077E10,4.3237507E10,2.6889482E13,1.2038428E13,4.023854E13,1.386464E14,5.594622E12,1.7467145E13,1.5887336E13,5.218142E12,3.3765783E12,4.656424E12,1.7096151E12,1.7465082E11,0E0,0E0,0E0,0E0,0E0,0E0,0E0,0E0,0E0,0E0,0E0,0E0,0E0,0E0,0E0,0E0,0E0,0E0,0E0,0E0,0E0,0E0,0E0,0E0,0E0,0E0,0E0,0E0,0E0,0E0],"parents":[2147483647,0,0,1,1,2,2,3,3,4,4,5,5,6,6,7,7,8,8,9,9,10,10,11,11,12,12,13,13,14,14,16,16,17,17,18,18,19,19,20,20,21,21,22,22,23,23,24,24,25,25,26,26,27,27,28,28,29,29,30,30],"right_children":[2,4,6,8,10,12,14,16,18,20,22,24,26,28,30,-1,32,34,36,38,40,42,44,46,48,50,52,54,56,58,60,-1,-1,-1,-1,-1,-1,-1,-1,-1,-1,-1,-1,-1,-1,-1,-1,-1,-1,-1,-1,-1,-1,-1,-1,-1,-1,-1,-1,-1,-1],"split_conditions":[1.4420675E0,-8.135335E-1,1.2936526E1,-7.619048E-1,3.6809182E0,-4.7619048E-1,6.1952275E-1,-8.215528E-1,8.6780435E-1,1E0,5.900813E-1,9.37471E-2,1.7981255E0,2.2578166E0,-3.672939E-1,-2.9782459E4,3.6809182E0,-8.215528E-1,5.4455286E-1,4.9503213E-1,-5.188618E-1,-1.8390244E-1,5.917073E-1,-5.548676E-2,1E0,3.75E-1,1.9575784E-1,-4.7821137E-1,7.037982E-2,2.8135926E-1,1E0,-9.798119E3,-3.1400623E4,-3.0042408E4,-3.6279035E4,-4.2928117E4,-2.4531854E4,-2.3670598E3,1.3500664E4,4.8347485E3,-1.4700132E4,1.9205656E4,-1.0249048E4,1.01887234E5,1.2437582E4,4.6878773E4,-1.5828222E4,1.079454E5,4.359222E3,4.1715844E4,3.3696902E3,1.4984609E4,9.1995984E4,1.1783033E5,6.2863668E4,-2.9722285E4,1.3971536E5,5.2836125E4,1.5478838E5,1.5900612E5,2.1685767E5],"split_indices":[7,19,15,21,0,21,2,19,7,27,10,19,31,7,14,0,0,19,10,7,10,10,10,19,27,25,19,10,19,19,17,0,0,0,0,0,0,0,0,0,0,0,0,0,0,0,0,0,0,0,0,0,0,0,0,0,0,0,0,0,0],"split_type":[0,0,0,0,0,0,0,0,0,0,0,0,0,0,0,0,0,0,0,0,0,0,0,0,0,0,0,0,0,0,0,0,0,0,0,0,0,0,0,0,0,0,0,0,0,0,0,0,0,0,0,0,0,0,0,0,0,0,0,0,0],"sum_hessian":[7.1025E4,6.7514E4,3.511E3,6.525E3,6.0989E4,3.045E3,4.66E2,3.16E2,6.209E3,5.0243E4,1.0746E4,1.103E3,1.942E3,3.68E2,9.8E1,8.7E1,2.29E2,6.112E3,9.7E1,3.5195E4,1.5048E4,7.701E3,3.045E3,2.17E2,8.86E2,1.674E3,2.68E2,2.11E2,1.57E2,4.6E1,5.2E1,2.16E2,1.3E1,6.066E3,4.6E1,8.7E1,1E1,3.0591E4,4.604E3,1.293E3,1.3755E4,5.052E3,2.649E3,9.38E2,2.107E3,9.1E1,1.26E2,8.2E2,6.6E1,9.88E2,6.86E2,3.9E1,2.29E2,6.1E1,1.5E2,6E0,1.51E2,9E0,3.7E1,2.2E1,3E1],"tree_param":{"num_deleted":"0","num_feature":"39","num_nodes":"61","size_leaf_vector":"1"}},{"base_weights":[-2.1998088E2,-1.3087647E4,2.5829345E5,-1.380009E5,3.5177935E3,-1.8926694E5,3.052892E5,-1.8584077E5,-1.2647617E5,-1.5716783E4,9.5445414E4,-1.7548478E5,-2.2530605E5,1.9730955E5,4.7788797E5,-1.9823527E5,-1.6442825E5,1.9619566E5,-1.2717049E5,-6.261888E3,-8.806215E4,3.519431E4,1.7925516E5,-1.9178988E5,-2.6560566E4,-2.3744541E4,-2.709786E5,2.9647522E5,-1.0511235E4,4.028247E5,6.4233494E5,-3.6884016E4,-4.2494605E4,-3.6072734E4,-3.0690373E4,-2.4436918E4,-4.253321E4,-9.70113E3,2.4091238E3,-8.901242E3,-2.1476943E4,2.8549707E4,1.1519062E3,1.0320951E5,3.118859E4,-4.7534656E4,-3.2239639E4,-4.2704742E4,-5.808923E4,4.6801004E4,1.1800846E5,5.3147314E3,-2.543831E4,5.371793E4,1.1961226E5,-2.2430656E4,1.3567525E5],"categories":[],"categories_nodes":[],"categories_segments":[],"categories_sizes":[],"default_left":[0,0,0,0,0,0,0,0,0,0,0,0,0,0,0,0,0,0,0,0,0,0,0,0,0,0,0,0,0,0,0,0,0,0,0,0,0,0,0,0,0,0,0,0,0,0,0,0,0,0,0,0,0,0,0,0,0],"id":5,"left_children":[1,3,5,7,9,11,13,15,17,19,21,23,25,27,29,31,33,-1,35,37,39,41,43,45,-1,-1,47,49,51,53,55,-1,-1,-1,-1,-1,-1,-1,-1,-1,-1,-1,-1,-1,-1,-1,-1,-1,-1,-1,-1,-1,-1,-1,-1,-1,-1],"loss_changes":[2.3579317E14,1.4005939E14,7.075113E13,4.3447789E12,1.0538733E14,1.19404495E11,5.659995E13,3.7505466E11,5.1847553E12,3.3714E13,5.2070514E13,1.2101458E11,3.652843E11,3.860319E13,1.4183643E13,1.1695817E11,4.396889E10,0E0,5.2888496E11,3.5757725E13,5.479485E12,1.9703372E13,2.7617252E13,1.8038758E11,0E0,0E0,1.8796773E10,2.157894E13,2.784849E12,2.1552758E13,1.6268699E13,0E0,0E0,0E0,0E0,0E0,0E0,0E0,0E0,0E0,0E0,0E0,0E0,0E0,0E0,0E0,0E0,0E0,0E0,0E0,0E0,0E0,0E0,0E0,0E0,0E0,0E0],"parents":[2147483647,0,0,1,1,2,2,3,3,4,4,5,5,6,6,7,7,8,8,9,9,10,10,11,11,12,12,13,13,14,14,15,15,16,16,18,18,19,19,20,20,21,21,22,22,23,23,26,26,27,27,28,28,29,29,30,30],"right_children":[2,4,6,8,10,12,14,16,18,20,22,24,26,28,30,32,34,-1,36,38,40,42,44,46,-1,-1,48,50,52,54,56,-1,-1,-1,-1,-1,-1,-1,-1,-1,-1,-1,-1,-1,-1,-1,-1,-1,-1,-1,-1,-1,-1,-1,-1,-1,-1],"split_conditions":[6.2925715E0,0E0,0E0,0E0,5.5496293E-1,7.076015E1,-4.6463332E-1,1E0,-1.0766367E0,1E0,-8.129485E-1,-1.130492E-1,8.397805E-1,1E0,7.1428573E-1,1.545744E-1,-5.1642275E-1,1.9619566E5,9.7534144E-1,-6.58814E-1,-2.2780488E-1,-4.3105692E-1,0E0,8.397805E-1,-2.6560566E4,-2.3744541E4,9.846176E-1,1.1818181E0,1E0,2.101867E0,-6.1724496E-1,-3.6884016E4,-4.2494605E4,-3.6072734E4,-3.0690373E4,-2.4436918E4,-4.253321E4,-9.70113E3,2.4091238E3,-8.901242E3,-2.1476943E4,2.8549707E4,1.1519062E3,1.0320951E5,3.118859E4,-4.7534656E4,-3.2239639E4,-4.2704742E4,-5.808923E4,4.6801004E4,1.1800846E5,5.3147314E3,-2.543831E4,5.371793E4,1.1961226E5,-2.2430656E4,1.3567525E5],"split_indices":[0,30,30,18,7,8,14,27,14,28,14,14,7,27,26,34,10,0,7,7,10,10,27,7,0,0,37,29,28,7,19,0,0,0,0,0,0,0,0,0,0,0,0,0,0,0,0,0,0,0,0,0,0,0,0,0,0],"split_type":[0,0,0,0,0,0,0,0,0,0,0,0,0,0,0,0,0,0,0,0,0,0,0,0,0,0,0,0,0,0,0,0,0,0,0,0,0,0,0,0,0,0,0,0,0,0,0,0,0,0,0,0,0,0,0,0,0],"sum_hessian":[7.0882E4,6.7522E4,3.36E3,7.922E3,5.96E4,3.19E2,3.041E3,1.535E3,6.387E3,4.9288E4,1.0312E4,2.35E2,8.4E1,1.872E3,1.169E3,9.67E2,5.68E2,3E0,6.384E3,4.3592E4,5.696E3,6E3,4.312E3,1.62E2,7.3E1,2.7E1,5.7E1,1.267E3,6.05E2,8.05E2,3.64E2,7.17E2,2.5E2,1.14E2,4.54E2,6.322E3,6.2E1,1.3035E4,3.0557E4,2.007E3,3.689E3,1.239E3,4.761E3,2.09E2,4.103E3,4.9E1,1.13E2,2.4E1,3.3E1,1.08E3,1.87E2,4.61E2,1.44E2,5.1E2,2.95E2,2.6E1,3.38E2],"tree_param":{"num_deleted":"0","num_feature":"39","num_nodes":"57","size_leaf_vector":"1"}},{"base_weights":[1.1957773E2,-1.9920572E4,1.14553984E5,-1.1026065E5,-6.933017E3,8.147036E4,2.730026E5,-1.9499807E4,-1.5147825E5,-8.630547E3,4.3700984E5,1.9942497E5,4.204975E4,-1.7685098E5,2.9835712E5,-1.420259E5,-1.8823655E5,8.130632E3,-4.962153E4,4.9226903E5,6.2662832E4,3.635892E5,1.3170566E5,8.259711E4,-4.4310074E4,-5.019563E4,-1.5760439E5,4.320172E5,1.8266738E5,-2.9369607E4,-2.457251E4,-3.418859E4,-5.1747977E4,2.6602308E1,2.264866E4,-1.6756176E4,-5.8168467E3,1.3926119E5,7.558225E4,5.1917562E4,-1.846698E4,4.7435863E4,1.3657705E5,-2.881318E4,2.8702945E4,-2.7945518E4,1.9449365E4,1.6219349E4,-1.4064395E4,-3.854988E4,-2.5385145E4,6.4883832E4,1.11618695E5,8.946492E4,2.222434E4],"categories":[],"categories_nodes":[],"categories_segments":[],"categories_sizes":[],"default_left":[0,0,0,0,0,0,0,0,0,0,0,0,0,0,0,0,0,0,0,0,0,0,0,0,0,0,0,0,0,0,0,0,0,0,0,0,0,0,0,0,0,0,0,0,0,0,0,0,0,0,0,0,0,0,0],"id":6,"left_children":[1,3,5,7,9,11,13,-1,15,17,19,21,23,25,27,29,31,33,35,37,39,41,43,45,47,-1,49,51,53,-1,-1,-1,-1,-1,-1,-1,-1,-1,-1,-1,-1,-1,-1,-1,-1,-1,-1,-1,-1,-1,-1,-1,-1,-1,-1],"loss_changes":[1.6262585E14,7.0803006E13,5.5375785E13,2.9656581E12,3.976555E13,4.0649835E13,2.0868416E13,0E0,4.6769006E11,3.6113503E13,4.127065E12,2.4298534E13,2.2957062E13,1.1461932E11,2.6641313E13,1.4679854E11,2.1776092E11,3.2463401E13,1.1025802E13,3.7666192E12,9.02612E11,2.5729228E13,7.231733E12,1.810461E13,7.6109363E12,0E0,6.4045974E10,1.102154E13,1.7547875E13,0E0,0E0,0E0,0E0,0E0,0E0,0E0,0E0,0E0,0E0,0E0,0E0,0E0,0E0,0E0,0E0,0E0,0E0,0E0,0E0,0E0,0E0,0E0,0E0,0E0,0E0],"parents":[2147483647,0,0,1,1,2,2,3,3,4,4,5,5,6,6,8,8,9,9,10,10,11,11,12,12,13,13,14,14,15,15,16,16,17,17,18,18,19,19,20,20,21,21,22,22,23,23,24,24,26,26,27,27,28,28],"right_children":[2,4,6,8,10,12,14,-1,16,18,20,22,24,26,28,30,32,34,36,38,40,42,44,46,48,-1,50,52,54,-1,-1,-1,-1,-1,-1,-1,-1,-1,-1,-1,-1,-1,-1,-1,-1,-1,-1,-1,-1,-1,-1,-1,-1,-1,-1],"split_conditions":[7.0738417E-1,0E0,1.8551476E0,-8.215528E-1,2.4094207E0,0E0,0E0,-1.9499807E4,3.6809182E0,1E0,1.5E0,-4.7619048E-1,1E0,-8.68439E-1,-2.3918699E-1,1E0,8.5714287E-1,2.7272728E-1,1.4285715E-1,-2.099187E-1,-9.090909E-2,5.714286E-1,0E0,0E0,-1.0585366E-1,-5.019563E4,6.2925715E0,8.318327E0,0E0,-2.9369607E4,-2.457251E4,-3.418859E4,-5.1747977E4,2.6602308E1,2.264866E4,-1.6756176E4,-5.8168467E3,1.3926119E5,7.558225E4,5.1917562E4,-1.846698E4,4.7435863E4,1.3657705E5,-2.881318E4,2.8702945E4,-2.7945518E4,1.9449365E4,1.6219349E4,-1.4064395E4,-3.854988E4,-2.5385145E4,6.4883832E4,1.11618695E5,8.946492E4,2.222434E4],"split_indices":[7,30,7,19,1,38,30,0,0,27,28,21,27,19,10,27,26,29,26,10,29,26,30,30,10,0,0,0,38,0,0,0,0,0,0,0,0,0,0,0,0,0,0,0,0,0,0,0,0,0,0,0,0,0,0],"split_type":[0,0,0,0,0,0,0,0,0,0,0,0,0,0,0,0,0,0,0,0,0,0,0,0,0,0,0,0,0,0,0,0,0,0,0,0,0,0,0,0,0,0,0,0,0,0,0,0,0,0,0,0,0,0,0],"sum_hessian":[7.0912E4,6.0345E4,1.0567E4,7.584E3,5.2761E4,8.743E3,1.824E3,6.162E3,1.422E3,5.2561E4,2E2,2.189E3,6.554E3,9.7E1,1.727E3,1.135E3,2.87E2,3.7307E4,1.5254E4,1.74E2,2.6E1,6.38E2,1.551E3,4.46E3,2.094E3,1.6E1,8.1E1,8E2,9.27E2,6.86E2,4.49E2,2.53E2,3.4E1,3.4756E4,2.551E3,5.283E3,9.971E3,5.2E1,1.22E2,1.1E1,1.5E1,4.75E2,1.63E2,8.6E1,1.465E3,3.25E2,4.135E3,3.79E2,1.715E3,2.9E1,5.2E1,4.81E2,3.19E2,1.8E2,7.47E2],"tree_param":{"num_deleted":"0","num_feature":"39","num_nodes":"55","size_leaf_vector":"1"}},{"base_weights":[-3.1560928E2,-9.136085E3,1.7558938E5,-1.4310263E4,1.2787715E5,1.2644237E5,4.4065194E5,5.6633813E3,-4.430622E4,1.8359177E5,4.476743E4,8.239314E4,3.2608075E5,5.5599625E5,9.904461E4,-6.1001255E3,8.645473E4,-5.739359E4,1.1333934E4,-1.1876938E5,2.0382058E5,2.1686648E4,1.1791114E5,3.1557456E5,5.9679668E4,-9.732978E3,3.8131528E5,-9.595224E3,6.453282E5,-8.4670414E4,1.617276E5,-1.5409825E4,7.10115E2,1.2077247E4,4.0700613E4,-3.9722139E3,-1.5157186E4,8.97179E2,3.027375E4,2.8193445E3,-2.6136781E4,2.8062596E4,5.9231805E4,9.177831E3,-2.0421821E3,-2.4702111E4,2.805043E4,9.819748E3,9.505985E4,1.0062381E3,2.792713E4,8.205441E4,-1.1878637E4,9.325397E4,5.1321414E4,-2.0080305E4,1.2596697E5,-4.1057562E4,1.3536828E5,-2.6669812E4,1.6264373E4,2.1418852E4,1.3003188E5],"categories":[],"categories_nodes":[],"categories_segments":[],"categories_sizes":[],"default_left":[0,0,0,0,0,0,0,0,0,0,0,0,0,0,0,0,0,0,0,0,0,0,0,0,0,0,0,0,0,0,0,0,0,0,0,0,0,0,0,0,0,0,0,0,0,0,0,0,0,0,0,0,0,0,0,0,0,0,0,0,0,0,0],"id":7,"left_children":[1,3,5,7,9,11,13,15,17,19,21,23,25,27,29,31,33,35,37,39,41,43,45,47,49,51,53,55,57,59,61,-1,-1,-1,-1,-1,-1,-1,-1,-1,-1,-1,-1,-1,-1,-1,-1,-1,-1,-1,-1,-1,-1,-1,-1,-1,-1,-1,-1,-1,-1,-1,-1],"loss_changes":[1.10187596E14,4.794398E13,4.411896E13,3.9043056E13,1.1387254E13,2.514132E13,2.0828226E13,3.7178814E13,1.896838E13,9.033684E12,1.6670864E12,1.240643E13,9.593292E12,2.0014262E13,1.5683273E12,2.4516978E13,1.4800772E13,1.6251158E13,4.820059E12,2.0333658E11,8.2587146E12,6.248407E11,1.5885006E12,9.640738E12,9.855637E12,1.682432E12,5.0521986E12,3.4858045E12,1.5957699E13,3.2502507E11,2.5570176E12,0E0,0E0,0E0,0E0,0E0,0E0,0E0,0E0,0E0,0E0,0E0,0E0,0E0,0E0,0E0,0E0,0E0,0E0,0E0,0E0,0E0,0E0,0E0,0E0,0E0,0E0,0E0,0E0,0E0,0E0,0E0,0E0],"parents":[2147483647,0,0,1,1,2,2,3,3,4,4,5,5,6,6,7,7,8,8,9,9,10,10,11,11,12,12,13,13,14,14,15,15,16,16,17,17,18,18,19,19,20,20,21,21,22,22,23,23,24,24,25,25,26,26,27,27,28,28,29,29,30,30],"right_children":[2,4,6,8,10,12,14,16,18,20,22,24,26,28,30,32,34,36,38,40,42,44,46,48,50,52,54,56,58,60,62,-1,-1,-1,-1,-1,-1,-1,-1,-1,-1,-1,-1,-1,-1,-1,-1,-1,-1,-1,-1,-1,-1,-1,-1,-1,-1,-1,-1,-1,-1,-1,-1],"split_conditions":[6.2925715E0,1.2727273E0,8.5714287E-1,2.5E-1,1E0,1.6615093E0,-5.2380955E-1,4.7443676E-1,1.2084427E0,7.037982E-2,7.1428573E-1,-1.0422752E0,7.037982E-2,-5.1066756E-1,-1.6551961E-1,-8.135335E-1,0E0,-4.7619048E-1,1.2936526E1,-7.619048E-1,4.150375E-1,3.75E-1,6.333763E-2,4.6840054E-1,1E0,-5E-1,-1.4285715E-1,1.3275905E0,-8.323985E1,1.2084427E0,1.6273208E0,-1.5409825E4,7.10115E2,1.2077247E4,4.0700613E4,-3.9722139E3,-1.5157186E4,8.97179E2,3.027375E4,2.8193445E3,-2.6136781E4,2.8062596E4,5.9231805E4,9.177831E3,-2.0421821E3,-2.4702111E4,2.805043E4,9.819748E3,9.505985E4,1.0062381E3,2.792713E4,8.205441E4,-1.1878637E4,9.325397E4,5.1321414E4,-2.0080305E4,1.2596697E5,-4.1057562E4,1.3536828E5,-2.6669812E4,1.6264373E4,2.1418852E4,1.3003188E5],"split_indices":[0,29,26,25,27,37,21,31,9,19,26,38,19,24,24,19,18,21,15,21,17,25,19,31,17,28,26,31,8,9,31,0,0,0,0,0,0,0,0,0,0,0,0,0,0,0,0,0,0,0,0,0,0,0,0,0,0,0,0,0,0,0,0],"split_type":[0,0,0,0,0,0,0,0,0,0,0,0,0,0,0,0,0,0,0,0,0,0,0,0,0,0,0,0,0,0,0,0,0,0,0,0,0,0,0,0,0,0,0,0,0,0,0,0,0,0,0,0,0,0,0,0,0,0,0,0,0,0,0],"sum_hessian":[7.1015E4,6.7625E4,3.39E3,6.5165E4,2.46E3,2.861E3,5.29E2,3.9118E4,2.6047E4,1.472E3,9.88E2,2.345E3,5.16E2,3.95E2,1.34E2,3.4147E4,4.971E3,2.1087E4,4.96E3,9.2E1,1.38E3,7.52E2,2.36E2,2.07E2,2.138E3,7.3E1,4.43E2,5.4E1,3.41E2,3.4E1,1E2,4.005E3,3.0142E4,4.163E3,8.08E2,7.629E3,1.3458E4,4.742E3,2.18E2,1E1,8.2E1,8.77E2,5.03E2,4.18E2,3.34E2,2.3E1,2.13E2,8.3E1,1.24E2,1.301E3,8.37E2,7E0,6.6E1,2.36E2,2.07E2,4.8E1,6E0,2E1,3.21E2,2.6E1,8E0,9.2E1,8E0],"tree_param":{"num_deleted":"0","num_feature":"39","num_nodes":"63","size_leaf_vector":"1"}},{"base_weights":[1.9787073E2,-4.3876978E3,2.6545844E5,-2.0544307E4,4.7183844E4,2.3062839E5,4.2616138E5,-7.602367E4,-1.1798E4,1.27674375E5,2.178746E4,3.285446E5,1.8307558E5,3.7121375E5,8.0919744E5,-6.8752805E4,-1.1470562E5,5.8646562E3,-4.29344E4,-1.27976984E5,1.706564E5,7.730611E4,-2.7421549E4,2.2814633E5,4.2156488E5,1.3760092E5,3.124364E5,4.7587872E5,2.5568788E5,-2.98611E4,8.539051E5,-1.2806347E4,-1.4151163E4,-2.0986025E4,-2.8986607E4,-4.4504136E3,6.4179346E3,-8.0129553E2,-1.06276045E4,1.7211E4,-2.5322207E4,2.395605E4,6.1884117E4,1.1558391E4,5.6032566E4,1.5457715E2,-1.318385E4,3.6248676E4,1.1218155E5,5.919841E3,8.849933E4,6.5540984E4,1.8719223E4,8.174813E4,3.925989E4,-2.6968662E4,1.0018695E5,-3.6909546E3,5.9909027E4,2.1982097E5,1.2672704E5],"categories":[],"categories_nodes":[],"categories_segments":[],"categories_sizes":[],"default_left":[0,0,0,0,0,0,0,0,0,0,0,0,0,0,0,0,0,0,0,0,0,0,0,0,0,0,0,0,0,0,0,0,0,0,0,0,0,0,0,0,0,0,0,0,0,0,0,0,0,0,0,0,0,0,0,0,0,0,0,0,0],"id":8,"left_children":[1,3,5,7,9,11,13,15,17,19,21,23,25,27,29,31,33,35,37,39,41,43,45,47,49,51,53,55,57,-1,59,-1,-1,-1,-1,-1,-1,-1,-1,-1,-1,-1,-1,-1,-1,-1,-1,-1,-1,-1,-1,-1,-1,-1,-1,-1,-1,-1,-1,-1,-1],"loss_changes":[8.646808E13,5.8225643E13,6.6632475E12,2.5818699E13,3.4073498E13,4.57276E12,4.2036573E12,2.0300599E12,2.527877E13,4.395353E13,3.4624982E13,2.9296836E12,3.910144E12,2.1636212E12,1.251618E12,6.4147685E10,2.3652519E11,2.3092017E13,7.720682E12,3.644567E11,2.3887551E13,2.2217404E13,7.713279E12,2.1620835E12,2.3089832E12,4.0691837E12,2.0096735E12,2.5821834E12,1.3650866E12,0E0,6.596529E11,0E0,0E0,0E0,0E0,0E0,0E0,0E0,0E0,0E0,0E0,0E0,0E0,0E0,0E0,0E0,0E0,0E0,0E0,0E0,0E0,0E0,0E0,0E0,0E0,0E0,0E0,0E0,0E0,0E0,0E0],"parents":[2147483647,0,0,1,1,2,2,3,3,4,4,5,5,6,6,7,7,8,8,9,9,10,10,11,11,12,12,13,13,14,14,15,15,16,16,17,17,18,18,19,19,20,20,21,21,22,22,23,23,24,24,25,25,26,26,27,27,28,28,30,30],"right_children":[2,4,6,8,10,12,14,16,18,20,22,24,26,28,30,32,34,36,38,40,42,44,46,48,50,52,54,56,58,-1,60,-1,-1,-1,-1,-1,-1,-1,-1,-1,-1,-1,-1,-1,-1,-1,-1,-1,-1,-1,-1,-1,-1,-1,-1,-1,-1,-1,-1,-1,-1],"split_conditions":[4.17959E-1,3.681681E-1,8.318327E0,0E0,-4.3105692E-1,-1.4285715E-1,-8.108101E-1,-8.215528E-1,2.5E-1,0E0,1.25E-1,1E0,7.1428573E-1,-2.2780488E-1,-2.4094207E0,1.25E-1,3.6809182E0,-4.4432172E-1,-4.3138212E-1,-1E0,-4.6463332E-1,8.4844935E-1,5E-1,5.3497225E-1,1.4123979E-1,-1.8181819E-1,7.1913995E-2,7.037982E-2,-5E-1,-2.98611E4,3.2037017E-1,-1.2806347E4,-1.4151163E4,-2.0986025E4,-2.8986607E4,-4.4504136E3,6.4179346E3,-8.0129553E2,-1.06276045E4,1.7211E4,-2.5322207E4,2.395605E4,6.1884117E4,1.1558391E4,5.6032566E4,1.5457715E2,-1.318385E4,3.6248676E4,1.1218155E5,5.919841E3,8.849933E4,6.5540984E4,1.8719223E4,8.174813E4,3.925989E4,-2.6968662E4,1.0018695E5,-3.6909546E3,5.9909027E4,2.1982097E5,1.2672704E5],"split_indices":[14,7,0,30,10,26,36,19,25,30,25,0,26,10,1,25,0,7,10,30,14,34,25,2,19,29,11,19,28,0,7,0,0,0,0,0,0,0,0,0,0,0,0,0,0,0,0,0,0,0,0,0,0,0,0,0,0,0,0,0,0],"split_type":[0,0,0,0,0,0,0,0,0,0,0,0,0,0,0,0,0,0,0,0,0,0,0,0,0,0,0,0,0,0,0,0,0,0,0,0,0,0,0,0,0,0,0,0,0,0,0,0,0,0,0,0,0,0,0,0,0,0,0,0,0],"sum_hessian":[7.1085E4,6.9878E4,1.207E3,5.3209E4,1.6669E4,9.94E2,2.13E2,7.245E3,4.5964E4,3.997E3,1.2672E4,3.23E2,6.71E2,1.88E2,2.5E1,6.101E3,1.144E3,2.9328E4,1.6636E4,5.75E2,3.422E3,5.954E3,6.718E3,1.57E2,1.66E2,4.98E2,1.73E2,9.7E1,9.1E1,1E0,2.4E1,3.826E3,2.275E3,9.73E2,1.71E2,1.4255E4,1.5073E4,3.921E3,1.2715E4,7E0,5.68E2,2.604E3,8.18E2,5.499E3,4.55E2,3.967E3,2.751E3,1.42E2,1.5E1,1.4E1,1.52E2,8.3E1,4.15E2,8.5E1,8.8E1,6E0,9.1E1,1.5E1,7.6E1,8E0,1.6E1],"tree_param":{"num_deleted":"0","num_feature":"39","num_nodes":"61","size_leaf_vector":"1"}},{"base_weights":[2.1384435E2,-5.251423E3,1.6179895E5,-6.769409E4,3.1927178E3,2.4451066E5,8.084865E4,-1.04799336E5,-5.808071E4,-4.161935E3,9.454299E4,-1.23873766E5,2.79362E5,5.3410418E4,4.946974E5,-9.331293E4,-1.22639625E5,-5.671323E4,-1.322347E5,-5.9848643E3,2.776897E5,-4.392919E3,1.27192266E5,-9.982268E4,-2.1508698E5,2.0007908E5,3.54729E5,8.281211E4,-1.3706814E5,-4.9421504E4,5.656703E5,-2.1247854E4,-1.7141229E4,-3.1338053E4,-2.2525668E4,-1.079076E4,-1.6611584E4,9.2301945E4,-2.7411793E4,5.0601736E2,-1.2378553E4,6.3565375E4,2.5331807E4,7.674629E3,-1.18269E4,4.4145023E4,1.6624633E4,-1.4275406E4,-2.4663258E4,-7.597243E3,-4.3031133E4,2.684739E4,5.5139523E4,7.297487E4,1.1870302E4,3.562236E4,7.8767817E3,-4.3104938E4,-2.1968306E3,1.5544447E2,1.2433481E5],"categories":[],"categories_nodes":[],"categories_segments":[],"categories_sizes":[],"default_left":[0,0,0,0,0,0,0,0,0,0,0,0,0,0,0,0,0,0,0,0,0,0,0,0,0,0,0,0,0,0,0,0,0,0,0,0,0,0,0,0,0,0,0,0,0,0,0,0,0,0,0,0,0,0,0,0,0,0,0,0,0],"id":9,"left_children":[1,3,5,7,9,11,13,15,17,19,21,23,25,27,29,31,33,35,37,39,41,43,45,47,49,51,53,55,57,-1,59,-1,-1,-1,-1,-1,-1,-1,-1,-1,-1,-1,-1,-1,-1,-1,-1,-1,-1,-1,-1,-1,-1,-1,-1,-1,-1,-1,-1,-1,-1],"loss_changes":[6.2731386E13,3.6229786E13,1.5540655E13,2.9135607E12,4.0665434E13,1.4786272E13,1.3327386E13,3.3343878E11,6.5193116E11,2.8783462E13,1.4568693E13,1.9790705E11,6.203107E12,6.194183E12,4.0300865E12,7.09131E10,1.4290308E11,1.7616706E11,7.344846E11,2.7737723E13,2.6348093E12,2.7988231E12,1.4108783E13,4.8864625E10,1.6561668E10,2.634931E12,3.4781224E12,4.072006E12,1.5900059E12,0E0,2.8976873E12,0E0,0E0,0E0,0E0,0E0,0E0,0E0,0E0,0E0,0E0,0E0,0E0,0E0,0E0,0E0,0E0,0E0,0E0,0E0,0E0,0E0,0E0,0E0,0E0,0E0,0E0,0E0,0E0,0E0,0E0],"parents":[2147483647,0,0,1,1,2,2,3,3,4,4,5,5,6,6,7,7,8,8,9,9,10,10,11,11,12,12,13,13,14,14,15,15,16,16,17,17,18,18,19,19,20,20,21,21,22,22,23,23,24,24,25,25,26,26,27,27,28,28,30,30],"right_children":[2,4,6,8,10,12,14,16,18,20,22,24,26,28,30,32,34,36,38,40,42,44,46,48,50,52,54,56,58,-1,60,-1,-1,-1,-1,-1,-1,-1,-1,-1,-1,-1,-1,-1,-1,-1,-1,-1,-1,-1,-1,-1,-1,-1,-1,-1,-1,-1,-1,-1,-1],"split_conditions":[1.6996611E0,0E0,-1.7414634E-1,0E0,8.181818E-1,0E0,1.2113762E0,3.5871935E-1,8.397805E-1,1.4493572E0,-1.0973743E-1,-3.3239853E1,1E0,1.5E0,0E0,-4.7619048E-1,-5.2380955E-1,4.7443676E-1,-1.0766367E0,1E0,1E0,9.0909094E-1,-4.7619048E-1,-5.627642E-1,-2.632021E-1,-2.9719502E-1,5.2380955E-1,-2.3241923E-4,4.0796748E-1,-4.9421504E4,-4.526039E4,-2.1247854E4,-1.7141229E4,-3.1338053E4,-2.2525668E4,-1.079076E4,-1.6611584E4,9.2301945E4,-2.7411793E4,5.0601736E2,-1.2378553E4,6.3565375E4,2.5331807E4,7.674629E3,-1.18269E4,4.4145023E4,1.6624633E4,-1.4275406E4,-2.4663258E4,-7.597243E3,-4.3031133E4,2.684739E4,5.5139523E4,7.297487E4,1.1870302E4,3.562236E4,7.8767817E3,-4.3104938E4,-2.1968306E3,1.5544447E2,1.2433481E5],"split_indices":[7,30,10,18,29,30,2,7,7,14,7,8,17,28,1,21,21,31,14,28,28,29,21,10,12,14,21,32,10,0,31,0,0,0,0,0,0,0,0,0,0,0,0,0,0,0,0,0,0,0,0,0,0,0,0,0,0,0,0,0,0],"split_type":[0,0,0,0,0,0,0,0,0,0,0,0,0,0,0,0,0,0,0,0,0,0,0,0,0,0,0,0,0,0,0,0,0,0,0,0,0,0,0,0,0,0,0,0,0,0,0,0,0,0,0,0,0,0,0,0,0,0,0,0,0],"sum_hessian":[7.1033E4,6.871E4,2.323E3,8.184E3,6.0526E4,1.148E3,1.175E3,1.682E3,6.502E3,5.6017E4,4.509E3,9.9E1,1.049E3,1.103E3,7.2E1,1.027E3,6.55E2,6.386E3,1.16E2,5.5658E4,3.59E2,1.119E3,3.39E3,8E1,1.9E1,5.13E2,5.36E2,9.56E2,1.47E2,6E0,6.6E1,2.26E2,8.01E2,8.7E1,5.68E2,6.182E3,2.04E2,1E0,1.15E2,4.8468E4,7.19E3,2.66E2,9.3E1,6.3E2,4.89E2,9.84E2,2.406E3,4.3E1,3.7E1,1E0,1.8E1,2.99E2,2.14E2,4.98E2,3.8E1,2.8E2,6.76E2,8.7E1,6E1,8E0,5.8E1],"tree_param":{"num_deleted":"0","num_feature":"39","num_nodes":"61","size_leaf_vector":"1"}},{"base_weights":[-2.742074E2,-1.2905477E4,5.218273E4,-4.4742043E4,-3.6670146E3,2.8999398E4,1.6068483E5,-5.421676E4,2.0185089E3,-3.4667082E4,9.001289E3,-4.4289305E4,5.952435E4,2.8804966E5,1.01536045E4,-7.7396266E4,-4.712131E4,2.3234727E5,-3.240371E4,1.1187339E4,-5.1448434E4,-9.896063E3,3.6601152E4,-9.848867E4,-1.7448914E4,2.3848475E4,1.3275686E5,2.8949668E4,3.931567E5,-3.709238E4,1.5339539E5,-9.117016E3,-1.8798023E4,-1.3412992E4,-7.534698E3,6.974249E4,2.0766465E4,7.4862234E4,-7.491147E3,1.8163162E4,-7.2215E2,-1.5706375E4,-8.086094E3,-3.9159844E3,7.2678604E3,6.123046E3,3.4941637E4,-3.7797312E4,-1.712421E4,3.2549956E3,-1.327927E4,1.5243229E4,-1.1947533E3,-1.6083845E4,3.1614693E4,3.536429E4,-7.933816E3,-9.545423E3,8.9974336E4,-2.7506502E4,5.661552E2,2.1699291E4,7.0265125E4],"categories":[],"categories_nodes":[],"categories_segments":[],"categories_sizes":[],"default_left":[0,0,0,0,0,0,0,0,0,0,0,0,0,0,0,0,0,0,0,0,0,0,0,0,0,0,0,0,0,0,0,0,0,0,0,0,0,0,0,0,0,0,0,0,0,0,0,0,0,0,0,0,0,0,0,0,0,0,0,0,0,0,0],"id":10,"left_children":[1,3,5,7,9,11,13,15,17,19,21,23,25,27,29,31,33,35,37,39,41,43,45,47,49,51,53,55,57,59,61,-1,-1,-1,-1,-1,-1,-1,-1,-1,-1,-1,-1,-1,-1,-1,-1,-1,-1,-1,-1,-1,-1,-1,-1,-1,-1,-1,-1,-1,-1,-1,-1],"loss_changes":[4.701529E13,1.6819433E13,3.4632955E13,5.6985303E12,1.7407551E13,2.5387396E13,4.647093E13,1.755354E12,1.7196358E13,9.895567E12,1.6412427E13,4.852723E12,2.0926643E13,3.574584E13,7.5312603E12,1.4911548E12,1.4861006E12,4.4728813E12,4.990705E12,4.2482404E12,2.7014715E12,9.155785E12,9.145014E12,1.05546934E12,3.9141575E12,8.878823E12,1.7314783E13,4.0925473E12,2.9614E13,3.517025E12,2.3484946E12,0E0,0E0,0E0,0E0,0E0,0E0,0E0,0E0,0E0,0E0,0E0,0E0,0E0,0E0,0E0,0E0,0E0,0E0,0E0,0E0,0E0,0E0,0E0,0E0,0E0,0E0,0E0,0E0,0E0,0E0,0E0,0E0],"parents":[2147483647,0,0,1,1,2,2,3,3,4,4,5,5,6,6,7,7,8,8,9,9,10,10,11,11,12,12,13,13,14,14,15,15,16,16,17,17,18,18,19,19,20,20,21,21,22,22,23,23,24,24,25,25,26,26,27,27,28,28,29,29,30,30],"right_children":[2,4,6,8,10,12,14,16,18,20,22,24,26,28,30,32,34,36,38,40,42,44,46,48,50,52,54,56,58,60,62,-1,-1,-1,-1,-1,-1,-1,-1,-1,-1,-1,-1,-1,-1,-1,-1,-1,-1,-1,-1,-1,-1,-1,-1,-1,-1,-1,-1,-1,-1,-1,-1],"split_conditions":[3.6809182E0,-5.631758E-1,8.5714287E-1,8.7041855E-2,-9.938255E-1,3.1450474E-1,6.0146344E-1,-1.35692E0,-7.2727275E-1,-2.2780488E-1,-1.48012E-1,-2.4095567E-1,-4.6463332E-1,-4.4432172E-1,9.047619E-1,-7.6620924E-1,-1.4048213E0,5.528824E-2,-5.8552843E-1,-5.627642E-1,-1.2239659E-1,8.5714287E-1,4.17959E-1,-7.1428573E-1,-8.6763874E-4,-4.3105692E-1,0E0,-1.4605939E-2,5.900813E-1,1.0042335E-1,3.6363637E-1,-9.117016E3,-1.8798023E4,-1.3412992E4,-7.534698E3,6.974249E4,2.0766465E4,7.4862234E4,-7.491147E3,1.8163162E4,-7.2215E2,-1.5706375E4,-8.086094E3,-3.9159844E3,7.2678604E3,6.123046E3,3.4941637E4,-3.7797312E4,-1.712421E4,3.2549956E3,-1.327927E4,1.5243229E4,-1.1947533E3,-1.6083845E4,3.1614693E4,3.536429E4,-7.933816E3,-9.545423E3,8.9974336E4,-2.7506502E4,5.661552E2,2.1699291E4,7.0265125E4],"split_indices":[0,33,26,19,14,7,10,33,29,10,7,7,14,7,21,19,7,35,10,10,7,26,14,21,19,10,30,2,10,31,29,0,0,0,0,0,0,0,0,0,0,0,0,0,0,0,0,0,0,0,0,0,0,0,0,0,0,0,0,0,0,0,0],"split_type":[0,0,0,0,0,0,0,0,0,0,0,0,0,0,0,0,0,0,0,0,0,0,0,0,0,0,0,0,0,0,0,0,0,0,0,0,0,0,0,0,0,0,0,0,0,0,0,0,0,0,0,0,0,0,0,0,0,0,0,0,0,0,0],"sum_hessian":[7.0954E4,5.7185E4,1.3769E4,1.2861E4,4.4324E4,1.1346E4,2.423E3,1.0694E4,2.167E3,1.2858E4,3.1466E4,3.336E3,8.01E3,1.312E3,1.111E3,2.504E3,8.19E3,2.81E2,1.886E3,3.445E3,9.413E3,1.8678E4,1.2788E4,1.104E3,2.232E3,5.387E3,2.623E3,3.79E2,9.33E2,8.36E2,2.75E2,9.88E2,1.516E3,2.21E3,5.98E3,1.38E2,1.43E2,2.7E1,1.859E3,5.26E2,2.919E3,2.313E3,7.1E3,1.5338E4,3.34E3,1.2362E4,4.26E2,1.02E2,1.002E3,1.337E3,8.95E2,1.904E3,3.483E3,3.25E2,2.298E3,1.18E2,2.61E2,1.3E2,8.03E2,2.3E2,6.06E2,2.31E2,4.4E1],"tree_param":{"num_deleted":"0","num_feature":"39","num_nodes":"63","size_leaf_vector":"1"}},{"base_weights":[-5.6842084E2,-3.5962773E3,1.7154453E5,8.207791E3,-3.2152982E4,6.916033E4,2.3063995E5,-5.360873E4,1.6488662E4,-2.7086688E4,-8.7878195E4,-3.7016836E4,9.369704E4,-8.837298E4,2.5135697E5,-4.3205324E4,-9.153411E4,8.373565E2,6.2737562E4,-2.84944E4,1.816403E5,-7.499523E4,-1.4338755E5,1.4929803E5,-5.0527742E4,7.86073E4,2.4826819E5,-1.1363697E5,-3.9953152E4,3.5174716E5,1.721975E5,-8.1845566E3,-3.2776816E4,-1.5362132E4,-2.054307E4,4.055471E3,-4.1022573E3,8.375057E3,3.0736516E4,-8.420196E3,-2.8448892E3,-1.914298E4,5.405647E4,-2.5702281E4,-1.3272214E4,-3.0935084E4,3.7646514E3,-1.1803599E3,5.937988E4,7.163154E3,-1.2877438E4,1.3735494E4,8.250098E4,9.399652E4,1.1687531E4,-2.8916436E4,-8.63748E3,-4.900311E3,-1.0665023E4,4.1067203E4,8.61356E4,4.1943184E4,1.1497056E4],"categories":[],"categories_nodes":[],"categories_segments":[],"categories_sizes":[],"default_left":[0,0,0,0,0,0,0,0,0,0,0,0,0,0,0,0,0,0,0,0,0,0,0,0,0,0,0,0,0,0,0,0,0,0,0,0,0,0,0,0,0,0,0,0,0,0,0,0,0,0,0,0,0,0,0,0,0,0,0,0,0,0,0],"id":11,"left_children":[1,3,5,7,9,11,13,15,17,19,21,23,25,27,29,31,33,35,37,39,41,43,45,47,49,51,53,55,57,59,61,-1,-1,-1,-1,-1,-1,-1,-1,-1,-1,-1,-1,-1,-1,-1,-1,-1,-1,-1,-1,-1,-1,-1,-1,-1,-1,-1,-1,-1,-1,-1,-1],"loss_changes":[3.686611E13,2.3434097E13,7.3837325E12,2.5179955E13,5.7377575E12,1.1732204E12,5.144184E12,2.288794E12,3.1399357E13,5.481824E12,1.2006688E12,2.215127E11,8.318243E11,5.4177202E10,5.724726E12,5.2679777E11,2.1359493E11,1.4358415E13,2.0507039E13,3.8317284E12,3.4495453E12,5.0302078E11,8.526805E11,1.4865098E11,1.1443097E11,8.58587E11,1.397311E12,6.978529E10,2.5945805E9,4.0688146E12,2.0384422E12,0E0,0E0,0E0,0E0,0E0,0E0,0E0,0E0,0E0,0E0,0E0,0E0,0E0,0E0,0E0,0E0,0E0,0E0,0E0,0E0,0E0,0E0,0E0,0E0,0E0,0E0,0E0,0E0,0E0,0E0,0E0,0E0],"parents":[2147483647,0,0,1,1,2,2,3,3,4,4,5,5,6,6,7,7,8,8,9,9,10,10,11,11,12,12,13,13,14,14,15,15,16,16,17,17,18,18,19,19,20,20,21,21,22,22,23,23,24,24,25,25,26,26,27,27,28,28,29,29,30,30],"right_children":[2,4,6,8,10,12,14,16,18,20,22,24,26,28,30,32,34,36,38,40,42,44,46,48,50,52,54,56,58,60,62,-1,-1,-1,-1,-1,-1,-1,-1,-1,-1,-1,-1,-1,-1,-1,-1,-1,-1,-1,-1,-1,-1,-1,-1,-1,-1,-1,-1,-1,-1,-1,-1],"split_conditions":[1.2936526E1,1E0,3.6809182E0,0E0,1.5E0,-5.897784E-1,0E0,-8.215528E-1,1E0,1.7981255E0,8.397805E-1,-8.601109E-1,1.5509245E0,0E0,-1.4285715E-1,1.4420675E0,3.2037017E-1,-1.4285715E-1,3.6363637E-1,0E0,-4.761905E-2,-5E-1,1.4493572E0,-1.4328451E0,-5.4060566E-1,2.3057422E4,4.4573888E-1,1.4840561E0,5.600138E-2,-1.7549897E-2,3.75E-1,-8.1845566E3,-3.2776816E4,-1.5362132E4,-2.054307E4,4.055471E3,-4.1022573E3,8.375057E3,3.0736516E4,-8.420196E3,-2.8448892E3,-1.914298E4,5.405647E4,-2.5702281E4,-1.3272214E4,-3.0935084E4,3.7646514E3,-1.1803599E3,5.937988E4,7.163154E3,-1.2877438E4,1.3735494E4,8.250098E4,9.399652E4,1.1687531E4,-2.8916436E4,-8.63748E3,-4.900311E3,-1.0665023E4,4.1067203E4,8.61356E4,4.1943184E4,1.1497056E4],"split_indices":[15,27,0,30,28,7,30,19,0,31,7,2,7,18,21,7,7,21,29,1,21,25,14,7,24,33,19,37,31,24,25,0,0,0,0,0,0,0,0,0,0,0,0,0,0,0,0,0,0,0,0,0,0,0,0,0,0,0,0,0,0,0,0],"split_type":[0,0,0,0,0,0,0,0,0,0,0,0,0,0,0,0,0,0,0,0,0,0,0,0,0,0,0,0,0,0,0,0,0,0,0,0,0,0,0,0,0,0,0,0,0,0,0,0,0,0,0,0,0,0,0,0,0,0,0,0,0,0,0],"sum_hessian":[7.074E4,6.9518E4,1.222E3,4.9187E4,2.0331E4,4.48E2,7.74E2,5.81E3,4.3377E4,1.8638E4,1.693E3,8.4E1,3.64E2,4.7E1,7.27E2,4.561E3,1.249E3,3.241E4,1.0967E4,1.8514E4,1.24E2,1.376E3,3.17E2,5E0,7.9E1,3.33E2,3.1E1,3E1,1.7E1,3.19E2,4.08E2,4.529E3,3.2E1,6.84E2,5.65E2,1.6942E4,1.5468E4,9.119E3,1.848E3,8.87E3,9.644E3,3.2E1,9.2E1,1.36E2,1.24E3,2.88E2,2.9E1,3E0,2E0,1.2E1,6.7E1,3.27E2,6E0,1.3E1,1.8E1,1.9E1,1.1E1,1E1,7E0,1.29E2,1.9E2,2.92E2,1.16E2],"tree_param":{"num_deleted":"0","num_feature":"39","num_nodes":"63","size_leaf_vector":"1"}},{"base_weights":[-4.9951697E2,-3.5035806E3,1.4613286E5,-5.44143E3,1.2975867E5,1.2549769E5,5.3788675E5,-2.0709348E4,8.938018E3,4.636255E5,1.19277516E5,1.5438733E5,-2.6717926E4,8.9070156E5,4.5103116E5,-2.8377762E4,4.376685E3,-1.8661293E4,2.3652867E4,1.5442872E5,7.62527E5,2.1258812E5,7.845884E4,2.0208894E5,5.1441895E4,-7.034957E4,2.7030816E5,-1.4395704E4,9.773201E5,5.844802E5,3.2016853E5,-2.702753E2,-7.1459585E3,-5.359226E3,2.7199001E3,1.1463029E4,-5.058725E3,2.6926465E3,1.6255129E4,1.0406269E5,-2.5009799E4,6.896279E4,1.80052E5,5.180038E4,1.480756E4,5.5048877E3,3.588312E4,8.404499E3,4.7187895E4,9.339157E1,3.849316E4,-2.097817E4,4.9981203E4,-3.9619246E4,6.494837E4,2.2781161E5,1.1262419E5,5.8017047E4,1.32304E5,3.5163599E3,7.533924E4],"categories":[],"categories_nodes":[],"categories_segments":[],"categories_sizes":[],"default_left":[0,0,0,0,0,0,0,0,0,0,0,0,0,0,0,0,0,0,0,0,0,0,0,0,0,0,0,0,0,0,0,0,0,0,0,0,0,0,0,0,0,0,0,0,0,0,0,0,0,0,0,0,0,0,0,0,0,0,0,0,0],"id":12,"left_children":[1,3,5,7,9,11,13,15,17,19,21,23,25,27,29,31,33,35,37,39,41,43,45,47,49,51,53,-1,55,57,59,-1,-1,-1,-1,-1,-1,-1,-1,-1,-1,-1,-1,-1,-1,-1,-1,-1,-1,-1,-1,-1,-1,-1,-1,-1,-1,-1,-1,-1,-1],"loss_changes":[3.1266703E13,1.7963E13,1.1452067E13,1.5052138E13,3.4335128E12,5.962673E12,1.7739851E12,6.3970036E12,1.4339715E13,2.654825E12,3.670253E12,5.5828493E12,2.831279E12,1.1593748E12,8.432145E11,5.864625E12,2.4149054E12,7.143885E12,1.3533336E13,1.8079199E12,6.896925E11,2.179698E12,3.6041182E12,5.13223E12,2.7189256E12,2.4007334E12,9.354989E11,0E0,2.6208633E11,5.8410926E11,6.597079E11,0E0,0E0,0E0,0E0,0E0,0E0,0E0,0E0,0E0,0E0,0E0,0E0,0E0,0E0,0E0,0E0,0E0,0E0,0E0,0E0,0E0,0E0,0E0,0E0,0E0,0E0,0E0,0E0,0E0,0E0],"parents":[2147483647,0,0,1,1,2,2,3,3,4,4,5,5,6,6,7,7,8,8,9,9,10,10,11,11,12,12,13,13,14,14,15,15,16,16,17,17,18,18,19,19,20,20,21,21,22,22,23,23,24,24,25,25,26,26,28,28,29,29,30,30],"right_children":[2,4,6,8,10,12,14,16,18,20,22,24,26,28,30,32,34,36,38,40,42,44,46,48,50,52,54,-1,56,58,60,-1,-1,-1,-1,-1,-1,-1,-1,-1,-1,-1,-1,-1,-1,-1,-1,-1,-1,-1,-1,-1,-1,-1,-1,-1,-1,-1,-1,-1,-1],"split_conditions":[8.318327E0,4.17959E-1,1.4227525E0,0E0,-5.4545456E-1,1E0,3.2037017E-1,1.3804772E0,-9.843821E-1,7.369656E-1,-2.7170733E-1,1E0,1.6044545E-1,0E0,1.2084427E0,-5.849625E-1,-1E0,0E0,8.5714287E-1,-5.849625E-1,1.0954447E0,2.1816707E-1,5.917073E-1,9.37471E-2,1.6615093E0,1.7981255E0,7.936847E-1,-1.4395704E4,-7.2727275E-1,7.369656E-1,1.4123979E-1,-2.702753E2,-7.1459585E3,-5.359226E3,2.7199001E3,1.1463029E4,-5.058725E3,2.6926465E3,1.6255129E4,1.0406269E5,-2.5009799E4,6.896279E4,1.80052E5,5.180038E4,1.480756E4,5.5048877E3,3.588312E4,8.404499E3,4.7187895E4,9.339157E1,3.849316E4,-2.097817E4,4.9981203E4,-3.9619246E4,6.494837E4,2.2781161E5,1.1262419E5,5.8017047E4,1.32304E5,3.5163599E3,7.533924E4],"split_indices":[0,14,2,17,29,28,7,2,14,17,10,27,14,1,9,17,1,27,26,17,33,11,10,19,37,31,33,0,29,17,19,0,0,0,0,0,0,0,0,0,0,0,0,0,0,0,0,0,0,0,0,0,0,0,0,0,0,0,0,0,0],"split_type":[0,0,0,0,0,0,0,0,0,0,0,0,0,0,0,0,0,0,0,0,0,0,0,0,0,0,0,0,0,0,0,0,0,0,0,0,0,0,0,0,0,0,0,0,0,0,0,0,0,0,0,0,0,0,0,0,0,0,0,0,0],"sum_hessian":[7.0979E4,6.9555E4,1.424E3,6.8559E4,9.96E2,1.354E3,7E1,3.3252E4,3.5307E4,2.9E1,9.67E2,1.138E3,2.16E2,1.2E1,5.8E1,2.5467E4,7.785E3,1.2278E4,2.3029E4,1.5E1,1.4E1,2.93E2,6.74E2,7.77E2,3.61E2,1.89E2,2.7E1,1E0,1.1E1,2.7E1,3.1E1,6.12E3,1.9347E4,1.804E3,5.981E3,1.074E3,1.1204E4,1.9827E4,3.202E3,6E0,9E0,5E0,9E0,2.08E2,8.5E1,4.6E2,2.14E2,1.62E2,6.15E2,2.69E2,9.2E1,1.7E2,1.9E1,3E0,2.4E1,6E0,5E0,8E0,1.9E1,6E0,2.5E1],"tree_param":{"num_deleted":"0","num_feature":"39","num_nodes":"61","size_leaf_vector":"1"}},{"base_weights":[-2.627393E2,-2.4298677E3,1.219797E5,4.987858E3,-3.354211E4,1.0016649E5,3.1435616E5,-1.1613891E4,2.2563275E4,-1.1009652E3,-4.366952E4,1.4799878E5,4.106483E4,5.0324516E5,8.748016E4,-2.9647412E4,-2.8619768E3,-3.2052268E3,4.9031465E4,-2.4721691E4,8.0059805E4,-5.9655277E4,-2.0563822E4,-7.8765414E4,1.7462592E5,1.8192184E5,3.553551E4,7.2076506E5,3.7605134E5,1.9302994E4,5.1117456E5,9.232941E3,-7.455551E3,1.728288E3,-3.6380862E3,-1.389307E3,2.747155E4,6.183953E3,2.5675201E4,3.8878525E3,-7.557143E3,7.609176E3,4.4107816E4,-1.0163717E4,-1.5521406E4,-5.10615E3,1.6644158E4,-2.135111E4,-7.8664087E3,2.8415523E4,6.1662652E4,4.5028496E3,4.790656E4,1.4426927E5,1.5323151E4,-3.1337043E3,7.829937E4,-8.927086E3,2.225346E4,-1.4126211E4,1.17132914E5],"categories":[],"categories_nodes":[],"categories_segments":[],"categories_sizes":[],"default_left":[0,0,0,0,0,0,0,0,0,0,0,0,0,0,0,0,0,0,0,0,0,0,0,0,0,0,0,0,0,0,0,0,0,0,0,0,0,0,0,0,0,0,0,0,0,0,0,0,0,0,0,0,0,0,0,0,0,0,0,0,0],"id":13,"left_children":[1,3,5,7,9,11,13,15,17,19,21,23,25,27,29,31,33,35,37,39,41,43,45,47,49,-1,51,53,55,57,59,-1,-1,-1,-1,-1,-1,-1,-1,-1,-1,-1,-1,-1,-1,-1,-1,-1,-1,-1,-1,-1,-1,-1,-1,-1,-1,-1,-1,-1,-1],"loss_changes":[1.8736415E13,1.6038138E13,5.1384125E12,1.6373938E13,4.3955499E12,3.1262025E12,5.312774E12,4.55451E12,1.859204E13,6.10595E12,3.7647905E12,3.7090608E12,2.4361564E12,1.6103244E12,1.6655371E12,6.465869E12,3.6493362E12,7.960873E12,1.920445E13,1.5830061E12,4.3153196E12,8.805186E11,2.5849186E12,7.365083E10,2.148981E12,0E0,1.282045E12,3.175885E11,5.0787045E11,3.2439753E11,4.8283242E11,0E0,0E0,0E0,0E0,0E0,0E0,0E0,0E0,0E0,0E0,0E0,0E0,0E0,0E0,0E0,0E0,0E0,0E0,0E0,0E0,0E0,0E0,0E0,0E0,0E0,0E0,0E0,0E0,0E0,0E0],"parents":[2147483647,0,0,1,1,2,2,3,3,4,4,5,5,6,6,7,7,8,8,9,9,10,10,11,11,12,12,13,13,14,14,15,15,16,16,17,17,18,18,19,19,20,20,21,21,22,22,23,23,24,24,26,26,27,27,28,28,29,29,30,30],"right_children":[2,4,6,8,10,12,14,16,18,20,22,24,26,28,30,32,34,36,38,40,42,44,46,48,50,-1,52,54,56,58,60,-1,-1,-1,-1,-1,-1,-1,-1,-1,-1,-1,-1,-1,-1,-1,-1,-1,-1,-1,-1,-1,-1,-1,-1,-1,-1,-1,-1,-1,-1],"split_conditions":[1.2936526E1,5E-1,8.5714287E-1,0E0,-5.253658E-1,-1.7739837E-1,6.063415E-1,-1E0,-9.128304E-1,8.0798346E-1,-8.8813233E-1,0E0,-8.095238E-1,4.3681785E-1,7.906091E-1,0E0,0E0,2.4094207E0,8.5714287E-1,-1.3200562E0,1.4094208E0,5.917073E-1,1.4493572E0,0E0,1E0,1.8192184E5,8.339837E-1,7.599705E-5,5.900813E-1,2.928424E-1,-2.3820198E0,9.232941E3,-7.455551E3,1.728288E3,-3.6380862E3,-1.389307E3,2.747155E4,6.183953E3,2.5675201E4,3.8878525E3,-7.557143E3,7.609176E3,4.4107816E4,-1.0163717E4,-1.5521406E4,-5.10615E3,1.6644158E4,-2.135111E4,-7.8664087E3,2.8415523E4,6.1662652E4,4.5028496E3,4.790656E4,1.4426927E5,1.5323151E4,-3.1337043E3,7.829937E4,-8.927086E3,2.225346E4,-1.4126211E4,1.17132914E5],"split_indices":[15,25,26,1,10,10,10,1,14,24,14,30,21,33,14,18,25,1,26,36,1,10,14,18,2,0,10,32,10,24,2,0,0,0,0,0,0,0,0,0,0,0,0,0,0,0,0,0,0,0,0,0,0,0,0,0,0,0,0,0,0],"split_type":[0,0,0,0,0,0,0,0,0,0,0,0,0,0,0,0,0,0,0,0,0,0,0,0,0,0,0,0,0,0,0,0,0,0,0,0,0,0,0,0,0,0,0,0,0,0,0,0,0,0,0,0,0,0,0,0,0,0,0,0,0],"sum_hessian":[7.0724E4,6.9493E4,1.231E3,5.6115E4,1.3378E4,1.107E3,1.24E2,2.8857E4,2.7258E4,3.183E3,1.0195E4,6.11E2,4.96E2,6.7E1,5.7E1,9.428E3,1.9429E4,1.3812E4,1.3446E4,2.466E3,7.17E2,6.025E3,4.17E3,6.4E1,5.47E2,2E0,4.94E2,2.3E1,4.4E1,5E1,7E0,9.69E2,8.459E3,1.1166E4,8.263E3,1.3445E4,3.67E2,1.1165E4,2.281E3,5.97E2,1.869E3,5.63E2,1.54E2,4.47E3,1.555E3,3.955E3,2.15E2,3.4E1,3E1,4.6E2,8.7E1,4.68E2,2.6E1,2.2E1,1E0,3E0,4.1E1,3E1,2E1,1E0,6E0],"tree_param":{"num_deleted":"0","num_feature":"39","num_nodes":"61","size_leaf_vector":"1"}},{"base_weights":[5.411503E1,-4.693456E3,5.620754E4,-5.9897236E3,1.4212322E5,-5.1783195E4,6.866421E4,5.254455E3,-2.2127293E4,-1.3990634E5,1.7785956E5,-2.5417604E4,-8.799879E4,1.2611181E5,4.3097105E4,1.9131122E3,1.05223086E5,3.7071062E3,-3.1372107E4,-2.4827872E5,1.2167088E4,2.1869983E5,-5.7700117E4,2.924154E5,-3.5148816E4,-7.808225E4,-1.3735928E5,1.5982711E5,-9.225489E4,3.5437484E4,1.605947E5,-6.828297E3,1.3626924E3,1.0501804E4,3.3515008E4,-1.3428041E3,2.6653535E4,-6.3863667E3,1.6385352E4,4.89802E4,-5.201162E4,-1.1878496E4,5.6526387E4,7.405037E4,2.9983795E4,3.086084E4,-3.3643758E4,-8.520578E3,1.5643484E5,-6.3941826E3,-3.1707807E4,-1.368714E4,-2.6849297E4,-1.5206527E4,-4.583639E4,1.9939395E4,9.195276E4,1.2164071E5,-1.9833494E4,1.776935E4,3.692288E3,6.816162E4,2.2767375E4],"categories":[],"categories_nodes":[],"categories_segments":[],"categories_sizes":[],"default_left":[0,0,0,0,0,0,0,0,0,0,0,0,0,0,0,0,0,0,0,0,0,0,0,0,0,0,0,0,0,0,0,0,0,0,0,0,0,0,0,0,0,0,0,0,0,0,0,0,0,0,0,0,0,0,0,0,0,0,0,0,0,0,0],"id":14,"left_children":[1,3,5,7,9,11,13,15,17,19,21,23,25,27,29,31,33,35,37,39,41,43,45,47,49,51,53,55,57,59,61,-1,-1,-1,-1,-1,-1,-1,-1,-1,-1,-1,-1,-1,-1,-1,-1,-1,-1,-1,-1,-1,-1,-1,-1,-1,-1,-1,-1,-1,-1,-1,-1],"loss_changes":[1.892859E13,1.2460114E13,7.4492685E12,1.1775555E13,5.799981E12,5.448899E11,7.2840653E12,1.2775425E13,6.364808E12,1.0742571E12,4.9093636E12,1.04021374E12,1.0724049E11,1.1264336E13,3.0866643E12,7.0546306E12,4.2720937E12,1.0016475E13,3.6833665E12,4.5630803E11,5.939804E11,4.47777E12,1.9431752E12,1.7703428E12,8.294017E10,8.101259E10,2.0940364E11,2.3664347E13,1.5703259E12,2.9740785E12,1.6873827E12,0E0,0E0,0E0,0E0,0E0,0E0,0E0,0E0,0E0,0E0,0E0,0E0,0E0,0E0,0E0,0E0,0E0,0E0,0E0,0E0,0E0,0E0,0E0,0E0,0E0,0E0,0E0,0E0,0E0,0E0,0E0,0E0],"parents":[2147483647,0,0,1,1,2,2,3,3,4,4,5,5,6,6,7,7,8,8,9,9,10,10,11,11,12,12,13,13,14,14,15,15,16,16,17,17,18,18,19,19,20,20,21,21,22,22,23,23,24,24,25,25,26,26,27,27,28,28,29,29,30,30],"right_children":[2,4,6,8,10,12,14,16,18,20,22,24,26,28,30,32,34,36,38,40,42,44,46,48,50,52,54,56,58,60,62,-1,-1,-1,-1,-1,-1,-1,-1,-1,-1,-1,-1,-1,-1,-1,-1,-1,-1,-1,-1,-1,-1,-1,-1,-1,-1,-1,-1,-1,-1,-1,-1],"split_conditions":[8.181818E-1,2.453877E0,0E0,2.5E-1,9.37471E-2,2.3948515E-2,-4.7619048E-1,6.530886E-1,-4.3105692E-1,3.6809182E0,1.5E0,-1.0766367E0,-6.3239853E1,5.917073E-1,4.17959E-1,0E0,-8.6815596E-1,8.993539E-1,1.4493572E0,-3.6502771E0,-6.845529E-2,-4.2455286E-1,-1.0083537E0,7.756603E-1,1.5509245E0,8.5714287E-1,9.7534144E-1,5.900813E-1,-4.7494335E0,9.0909094E-1,-5.253658E-1,-6.828297E3,1.3626924E3,1.0501804E4,3.3515008E4,-1.3428041E3,2.6653535E4,-6.3863667E3,1.6385352E4,4.89802E4,-5.201162E4,-1.1878496E4,5.6526387E4,7.405037E4,2.9983795E4,3.086084E4,-3.3643758E4,-8.520578E3,1.5643484E5,-6.3941826E3,-3.1707807E4,-1.368714E4,-2.6849297E4,-1.5206527E4,-4.583639E4,1.9939395E4,9.195276E4,1.2164071E5,-1.9833494E4,1.776935E4,3.692288E3,6.816162E4,2.2767375E4],"split_indices":[29,7,30,25,19,19,21,12,10,0,28,14,8,10,14,30,14,19,14,2,10,10,14,1,7,26,7,10,2,29,10,0,0,0,0,0,0,0,0,0,0,0,0,0,0,0,0,0,0,0,0,0,0,0,0,0,0,0,0,0,0,0,0],"split_type":[0,0,0,0,0,0,0,0,0,0,0,0,0,0,0,0,0,0,0,0,0,0,0,0,0,0,0,0,0,0,0,0,0,0,0,0,0,0,0,0,0,0,0,0,0,0,0,0,0,0,0,0,0,0,0,0,0,0,0,0,0,0,0],"sum_hessian":[7.1E4,6.5466E4,5.534E3,6.4894E4,5.72E2,5.72E2,4.962E3,3.8246E4,2.6648E4,6.4E1,5.08E2,3.32E2,2.4E2,1.527E3,3.435E3,3.701E4,1.236E3,7.023E3,1.9625E4,3.7E1,2.7E1,4.33E2,7.5E1,9E0,3.23E2,2.02E2,3.8E1,1.323E3,2.04E2,3.226E3,2.09E2,4.483E3,3.2527E4,7.07E2,5.29E2,6.507E3,5.16E2,1.9356E4,2.69E2,1E0,3.6E1,2.2E1,5E0,1.2E2,3.13E2,2.6E1,4.9E1,6E0,3E0,3.19E2,4E0,1.82E2,2E1,2.5E1,1.3E1,1.122E3,2.01E2,2E0,2.02E2,7.25E2,2.501E3,3.7E1,1.72E2],"tree_param":{"num_deleted":"0","num_feature":"39","num_nodes":"63","size_leaf_vector":"1"}},{"base_weights":[2.1819751E2,-1.2156428E3,1.4270881E5,1.3911771E4,-1.4261649E4,3.086007E5,9.8689734E4,4.7295967E3,7.44313E4,8.753183E3,-2.1629307E4,2.0058534E5,6.9388794E5,1.6431561E5,4.1863844E4,-1.9944508E4,2.2005635E4,1.5596145E5,-5.5441555E4,2.522198E4,-3.096281E4,-2.5976182E4,2.8310406E4,1.4428827E5,4.5107253E5,8.2687275E5,1.9157453E5,2.1603684E5,2.5437715E3,2.0984076E4,3.3521938E5,-2.8619766E3,-1.6027238E4,6.740414E3,-9.315052E3,-5.5681396E3,4.8076773E4,-6.606733E3,-3.9114535E4,3.4789824E3,2.2257943E4,-9.308069E3,-2.5114126E3,-8.823707E3,-3.7068303E3,1.0495823E3,1.8438375E4,6.38568E4,1.5247923E4,1.6611048E5,2.6062963E4,2.0515084E5,5.7150266E4,8.0959164E4,-2.7024041E4,5.2707895E4,1.9420096E4,8.080237E4,-7.6830005E3,-6.4216157E3,1.943394E4,-1.4348513E4,8.560401E4],"categories":[],"categories_nodes":[],"categories_segments":[],"categories_sizes":[],"default_left":[0,0,0,0,0,0,0,0,0,0,0,0,0,0,0,0,0,0,0,0,0,0,0,0,0,0,0,0,0,0,0,0,0,0,0,0,0,0,0,0,0,0,0,0,0,0,0,0,0,0,0,0,0,0,0,0,0,0,0,0,0,0,0],"id":15,"left_children":[1,3,5,7,9,11,13,15,17,19,21,23,25,27,29,31,33,35,37,39,41,43,45,47,49,51,53,55,57,59,61,-1,-1,-1,-1,-1,-1,-1,-1,-1,-1,-1,-1,-1,-1,-1,-1,-1,-1,-1,-1,-1,-1,-1,-1,-1,-1,-1,-1,-1,-1,-1,-1],"loss_changes":[1.4519583E13,1.3885712E13,5.139649E12,1.8104938E13,6.4061996E12,6.0201223E12,2.0852302E12,1.2059639E13,4.545472E13,5.993413E12,6.213181E12,1.5848136E12,1.9791935E12,2.1748808E12,1.8427749E12,3.7776476E12,1.4950987E13,4.500601E13,5.167778E12,4.2132772E12,8.265369E11,3.523207E12,3.510847E12,1.1534504E12,2.5889244E12,2.781847E12,6.587642E11,1.2544639E12,1.1377628E12,1.2202226E12,9.084781E11,0E0,0E0,0E0,0E0,0E0,0E0,0E0,0E0,0E0,0E0,0E0,0E0,0E0,0E0,0E0,0E0,0E0,0E0,0E0,0E0,0E0,0E0,0E0,0E0,0E0,0E0,0E0,0E0,0E0,0E0,0E0,0E0],"parents":[2147483647,0,0,1,1,2,2,3,3,4,4,5,5,6,6,7,7,8,8,9,9,10,10,11,11,12,12,13,13,14,14,15,15,16,16,17,17,18,18,19,19,20,20,21,21,22,22,23,23,24,24,25,25,26,26,27,27,28,28,29,29,30,30],"right_children":[2,4,6,8,10,12,14,16,18,20,22,24,26,28,30,32,34,36,38,40,42,44,46,48,50,52,54,56,58,60,62,-1,-1,-1,-1,-1,-1,-1,-1,-1,-1,-1,-1,-1,-1,-1,-1,-1,-1,-1,-1,-1,-1,-1,-1,-1,-1,-1,-1,-1,-1,-1,-1],"split_conditions":[1.4493572E0,-1.4285715E-1,1.6828749E-1,7.1428573E-1,-2.2780488E-1,1.4094208E0,4.761905E-2,-2.2544198E-1,5.917073E-1,5.2380955E-1,1.0952381E0,3.6809182E0,5E-1,1E0,7.8862375E-1,3.6809182E0,0E0,5.900813E-1,3.6809182E0,8.6861867E-1,3.2359603E-1,0E0,6.502439E-1,-5.849625E-1,-1.904762E-1,7.1428573E-1,3.6809182E0,5.8678496E-1,-5.849625E-1,1.78596E-1,6.0429955E-1,-2.8619766E3,-1.6027238E4,6.740414E3,-9.315052E3,-5.5681396E3,4.8076773E4,-6.606733E3,-3.9114535E4,3.4789824E3,2.2257943E4,-9.308069E3,-2.5114126E3,-8.823707E3,-3.7068303E3,1.0495823E3,1.8438375E4,6.38568E4,1.5247923E4,1.6611048E5,2.6062963E4,2.0515084E5,5.7150266E4,8.0959164E4,-2.7024041E4,5.2707895E4,1.9420096E4,8.080237E4,-7.6830005E3,-6.4216157E3,1.943394E4,-1.4348513E4,8.560401E4],"split_indices":[14,21,35,26,10,1,21,35,10,21,21,0,25,27,2,0,26,10,0,31,2,9,10,17,21,26,0,19,17,24,35,0,0,0,0,0,0,0,0,0,0,0,0,0,0,0,0,0,0,0,0,0,0,0,0,0,0,0,0,0,0,0,0],"split_type":[0,0,0,0,0,0,0,0,0,0,0,0,0,0,0,0,0,0,0,0,0,0,0,0,0,0,0,0,0,0,0,0,0,0,0,0,0,0,0,0,0,0,0,0,0,0,0,0,0,0,0,0,0,0,0,0,0,0,0,0,0,0,0],"sum_hessian":[7.1065E4,7.0358E4,7.07E2,3.258E4,3.7778E4,1.47E2,5.6E2,2.8289E4,4.291E3,9.161E3,2.8617E4,1.16E2,3.1E1,2.59E2,3.01E2,1.165E4,1.6639E4,2.636E3,1.655E3,6.476E3,2.685E3,2.6326E4,2.291E3,9.6E1,2E1,2.4E1,7E0,1.96E2,6.3E1,2.82E2,1.9E1,1.0767E4,8.83E2,1.4069E4,2.57E3,8.79E2,1.757E3,1.446E3,2.09E2,5.993E3,4.83E2,1.375E3,1.31E3,6.8E3,1.9526E4,1.708E3,5.83E2,2.4E1,7.2E1,8E0,1.2E1,1.6E1,8E0,4E0,3E0,1.31E2,6.5E1,5E0,5.8E1,1.68E2,1.14E2,4E0,1.5E1],"tree_param":{"num_deleted":"0","num_feature":"39","num_nodes":"63","size_leaf_vector":"1"}},{"base_weights":[1.3348297E2,-5.258504E3,2.557066E4,8.696412E3,-1.694762E4,1.936664E4,1.04755414E5,5.084575E3,1.0075197E5,1.5501968E3,-2.7967041E4,-5.2915668E4,2.4882873E4,1.8555952E5,7.292054E4,-2.4819246E4,1.1955348E4,1.782247E4,1.28849305E5,-1.1456582E4,7.82991E4,-2.9200826E4,8.234054E4,-7.605244E4,-1.9970611E4,3.630021E4,-1.6183116E4,1.27238875E5,3.0855006E5,1.31878E5,2.2345684E4,-5.6888193E3,6.169582E3,-7.7710654E3,3.2068328E3,2.2058281E3,4.7402938E4,2.3662496E4,8.24286E4,2.5384556E3,-9.655324E3,-5.6279336E3,2.8947398E4,-4.7826143E3,-9.0222E3,7.6801414E4,9.502636E3,-1.3075268E4,-2.25422E4,1.341832E5,-5.5029775E3,5.0639402E4,5.7880483E3,-2.1121443E3,-1.5824566E4,1.7604193E4,8.8505836E4,4.282599E4,1.0599975E5,6.324915E4,1.9629598E4,4.189925E4,1.1815059E3],"categories":[],"categories_nodes":[],"categories_segments":[],"categories_sizes":[],"default_left":[0,0,0,0,0,0,0,0,0,0,0,0,0,0,0,0,0,0,0,0,0,0,0,0,0,0,0,0,0,0,0,0,0,0,0,0,0,0,0,0,0,0,0,0,0,0,0,0,0,0,0,0,0,0,0,0,0,0,0,0,0,0,0],"id":16,"left_children":[1,3,5,7,9,11,13,15,17,19,21,23,25,27,29,31,33,35,37,39,41,43,45,47,49,51,53,55,57,59,61,-1,-1,-1,-1,-1,-1,-1,-1,-1,-1,-1,-1,-1,-1,-1,-1,-1,-1,-1,-1,-1,-1,-1,-1,-1,-1,-1,-1,-1,-1,-1,-1],"loss_changes":[9.727304E12,9.545477E12,6.0916063E12,8.868318E12,6.490973E12,4.588259E12,2.3041912E12,5.2741045E12,2.3441116E12,1.1869162E13,2.7183358E12,6.204707E11,5.0122777E12,1.7826526E12,1.9292364E12,1.2423869E12,5.013075E12,3.7083205E11,1.4264251E12,9.597123E12,1.318145E13,1.5431977E12,2.2909758E12,1.5681874E11,2.057545E12,1.205522E13,8.031626E11,2.0426449E12,1.569486E12,1.742598E12,1.102032E12,0E0,0E0,0E0,0E0,0E0,0E0,0E0,0E0,0E0,0E0,0E0,0E0,0E0,0E0,0E0,0E0,0E0,0E0,0E0,0E0,0E0,0E0,0E0,0E0,0E0,0E0,0E0,0E0,0E0,0E0,0E0,0E0],"parents":[2147483647,0,0,1,1,2,2,3,3,4,4,5,5,6,6,7,7,8,8,9,9,10,10,11,11,12,12,13,13,14,14,15,15,16,16,17,17,18,18,19,19,20,20,21,21,22,22,23,23,24,24,25,25,26,26,27,27,28,28,29,29,30,30],"right_children":[2,4,6,8,10,12,14,16,18,20,22,24,26,28,30,32,34,36,38,40,42,44,46,48,50,52,54,56,58,60,62,-1,-1,-1,-1,-1,-1,-1,-1,-1,-1,-1,-1,-1,-1,-1,-1,-1,-1,-1,-1,-1,-1,-1,-1,-1,-1,-1,-1,-1,-1,-1,-1],"split_conditions":[1.2084427E0,-1.25E-1,1.2936526E1,6.530886E-1,-4.7619048E-1,0E0,-3.9203253E-1,-1E0,-1.0029056E0,5.714286E-1,2.8188417E0,0E0,1.7164883E-1,7.6022846E-1,1.25E-1,7.037982E-2,0E0,7.2727275E-1,7.369656E-1,-4.3105692E-1,-6.572609E-2,6.25E-1,0E0,6.2925715E0,-1.0766367E0,-5.6439024E-1,1.0427724E0,1.169101E0,-4.99187E-1,-1.1160183E0,-3.1852496E0,-5.6888193E3,6.169582E3,-7.7710654E3,3.2068328E3,2.2058281E3,4.7402938E4,2.3662496E4,8.24286E4,2.5384556E3,-9.655324E3,-5.6279336E3,2.8947398E4,-4.7826143E3,-9.0222E3,7.6801414E4,9.502636E3,-1.3075268E4,-2.25422E4,1.341832E5,-5.5029775E3,5.0639402E4,5.7880483E3,-2.1121443E3,-1.5824566E4,1.7604193E4,8.8505836E4,4.282599E4,1.0599975E5,6.324915E4,1.9629598E4,4.189925E4,1.1815059E3],"split_indices":[9,25,15,12,21,30,10,1,14,26,1,18,36,19,25,19,30,29,17,10,24,25,0,0,14,10,36,2,10,11,2,0,0,0,0,0,0,0,0,0,0,0,0,0,0,0,0,0,0,0,0,0,0,0,0,0,0,0,0,0,0,0,0],"split_type":[0,0,0,0,0,0,0,0,0,0,0,0,0,0,0,0,0,0,0,0,0,0,0,0,0,0,0,0,0,0,0,0,0,0,0,0,0,0,0,0,0,0,0,0,0,0,0,0,0,0,0,0,0,0,0,0,0,0,0,0,0,0,0],"sum_hessian":[7.0919E4,5.8516E4,1.2403E4,2.6673E4,3.1843E4,1.1503E4,9E2,2.5667E4,1.006E3,1.1888E4,1.9955E4,8.15E2,1.0688E4,2.53E2,6.47E2,4.795E3,2.0872E4,2.55E2,7.51E2,1.0166E4,1.722E3,1.9735E4,2.2E2,4.78E2,3.37E2,8.363E3,2.325E3,1.73E2,8E1,2.98E2,3.49E2,4.438E3,3.57E2,1.696E3,1.9176E4,2.49E2,6E0,7.36E2,1.5E1,6.201E3,3.965E3,6.87E2,1.035E3,1.5685E4,4.05E3,2E1,2E2,3.97E2,8.1E1,3E0,3.34E2,2.3E2,8.133E3,2.153E3,1.72E2,1.57E2,1.6E1,6E1,2E1,3.9E1,2.59E2,2.6E1,3.23E2],"tree_param":{"num_deleted":"0","num_feature":"39","num_nodes":"63","size_leaf_vector":"1"}},{"base_weights":[6.01055E2,-1.3844641E4,1.1534771E4,-1.075534E4,-5.477103E4,-4.207784E3,3.3257977E4,-4.3185133E4,-6.980561E3,2.1401395E4,-6.800106E4,6.775476E4,-9.201921E3,-3.7978473E4,4.572836E4,-3.6577122E3,-5.6598402E4,-1.2212407E4,1.3192024E4,-9.589844E4,1.7821881E5,-1.560455E5,-5.8604723E4,1.7574989E5,2.3062975E4,1.3199029E4,-1.9365102E4,-2.61644E4,-8.247782E4,9.8696945E4,3.1646908E4,-1.4186113E3,6.415679E2,-1.56426875E4,-8.824761E3,1.2600253E3,-3.518548E3,1.3879976E4,-1.9820975E3,-3.577334E4,-1.5204216E4,1.05723625E5,1.8296127E4,-3.2285266E3,-3.5326523E4,2.105376E4,-1.22479E4,3.0184424E4,2.1581923E5,-8.547591E2,2.050648E4,-1.2161588E4,4.343522E3,-4.3269575E3,8.473263E3,-2.2017292E3,-8.537189E3,-2.0854748E4,-1.2325161E4,1.3753441E4,4.1566555E4,1.0717059E3,1.5447009E4],"categories":[],"categories_nodes":[],"categories_segments":[],"categories_sizes":[],"default_left":[0,0,0,0,0,0,0,0,0,0,0,0,0,0,0,0,0,0,0,0,0,0,0,0,0,0,0,0,0,0,0,0,0,0,0,0,0,0,0,0,0,0,0,0,0,0,0,0,0,0,0,0,0,0,0,0,0,0,0,0,0,0,0],"id":17,"left_children":[1,3,5,7,9,11,13,15,17,19,21,23,25,27,29,31,33,35,37,39,41,43,45,47,49,51,53,55,57,59,61,-1,-1,-1,-1,-1,-1,-1,-1,-1,-1,-1,-1,-1,-1,-1,-1,-1,-1,-1,-1,-1,-1,-1,-1,-1,-1,-1,-1,-1,-1,-1,-1],"loss_changes":[1.1164039E13,3.8494504E12,1.3758631E13,3.465888E12,2.155046E12,8.384492E12,1.5019218E13,1.56492E12,2.677074E12,5.848197E12,1.4973602E12,7.30326E12,4.966766E12,1.3221267E12,1.0727773E13,1.9188853E10,5.8386966E11,2.248372E12,7.1617683E12,2.6635312E11,4.1367306E12,6.416436E11,1.2917832E12,8.0767185E12,2.4413292E12,4.782813E12,2.8297737E12,5.279229E11,2.4391896E11,9.676834E12,1.4288986E13,0E0,0E0,0E0,0E0,0E0,0E0,0E0,0E0,0E0,0E0,0E0,0E0,0E0,0E0,0E0,0E0,0E0,0E0,0E0,0E0,0E0,0E0,0E0,0E0,0E0,0E0,0E0,0E0,0E0,0E0,0E0,0E0],"parents":[2147483647,0,0,1,1,2,2,3,3,4,4,5,5,6,6,7,7,8,8,9,9,10,10,11,11,12,12,13,13,14,14,15,15,16,16,17,17,18,18,19,19,20,20,21,21,22,22,23,23,24,24,25,25,26,26,27,27,28,28,29,29,30,30],"right_children":[2,4,6,8,10,12,14,16,18,20,22,24,26,28,30,32,34,36,38,40,42,44,46,48,50,52,54,56,58,60,62,-1,-1,-1,-1,-1,-1,-1,-1,-1,-1,-1,-1,-1,-1,-1,-1,-1,-1,-1,-1,-1,-1,-1,-1,-1,-1,-1,-1,-1,-1,-1,-1],"split_conditions":[-2.0047577E-1,3.6809182E0,-8.129485E-1,-1.4903721E0,-4.7963366E-1,-9.090909E-2,0E0,0E0,7.1428573E-1,8.5714287E-1,-8.2567173E-1,5.528824E-2,-2.2780488E-1,3.5871935E-1,-4.3138212E-1,1E0,-2.1697752E0,-4.3105692E-1,5.917073E-1,-7.49409E-1,-1.4507345E0,0E0,-7.87097E-1,1.5495782E0,1.4150375E0,9.37471E-2,1.1818181E0,-5.631758E-1,1.25E-1,1.1268257E0,5.900813E-1,-1.4186113E3,6.415679E2,-1.56426875E4,-8.824761E3,1.2600253E3,-3.518548E3,1.3879976E4,-1.9820975E3,-3.577334E4,-1.5204216E4,1.05723625E5,1.8296127E4,-3.2285266E3,-3.5326523E4,2.105376E4,-1.22479E4,3.0184424E4,2.1581923E5,-8.547591E2,2.050648E4,-1.2161588E4,4.343522E3,-4.3269575E3,8.473263E3,-2.2017292E3,-8.537189E3,-2.0854748E4,-1.2325161E4,1.3753441E4,4.1566555E4,1.0717059E3,1.5447009E4],"split_indices":[7,0,14,7,2,29,30,30,26,26,7,35,10,7,10,27,7,10,10,7,11,30,7,2,17,19,29,33,25,2,10,0,0,0,0,0,0,0,0,0,0,0,0,0,0,0,0,0,0,0,0,0,0,0,0,0,0,0,0,0,0,0,0],"split_type":[0,0,0,0,0,0,0,0,0,0,0,0,0,0,0,0,0,0,0,0,0,0,0,0,0,0,0,0,0,0,0,0,0,0,0,0,0,0,0,0,0,0,0,0,0,0,0,0,0,0,0,0,0,0,0,0,0,0,0,0,0,0,0],"sum_hessian":[7.0681E4,3.045E4,4.0231E4,2.8314E4,2.136E3,2.3327E4,1.6904E4,2.951E3,2.5363E4,3.16E2,1.82E3,1.513E3,2.1814E4,2.518E3,1.4386E4,7.48E2,2.203E3,2.014E4,5.223E3,1.81E2,1.35E2,1.74E2,1.646E3,4.42E2,1.071E3,6.808E3,1.5006E4,1.991E3,5.27E2,3.02E3,1.1366E4,4.9E2,2.58E2,6.87E2,1.516E3,4.865E3,1.5275E4,1.493E3,3.73E3,2.8E1,1.53E2,2.4E1,1.11E2,2.8E1,1.46E2,4.4E1,1.602E3,4.34E2,8E0,8.05E2,2.66E2,7.37E2,6.071E3,1.4329E4,6.77E2,1.092E3,8.99E2,2.23E2,3.04E2,2.44E3,5.8E2,7.37E3,3.996E3],"tree_param":{"num_deleted":"0","num_feature":"39","num_nodes":"63","size_leaf_vector":"1"}},{"base_weights":[-7.3427956E1,4.9564683E3,-2.177817E4,3.3669827E3,9.616287E4,-1.4009984E4,-4.5571504E4,1.4486735E4,-6.1581606E3,2.9232412E5,6.718413E4,-3.5736116E3,-2.4891488E4,-5.2805496E4,4.3461973E4,-1.3128841E4,3.0053232E4,-8.767003E3,3.3233246E4,-1.1802294E4,4.3745184E5,5.561325E4,3.2399334E5,1.4212428E4,-1.664985E4,-1.9710758E4,-4.930326E4,-1.3216398E5,-4.8243746E4,1.4984338E5,-7.126023E4,-3.3808347E3,1.5007298E4,1.9543264E4,3.0775562E3,-1.844562E2,-4.7380024E3,-2.730588E3,1.0596938E4,5.34181E3,-4.1181207E4,1.0309818E4,9.4338445E4,9.449165E3,7.693946E4,-5.522153E3,1.04503305E5,2.3282793E3,6.814243E4,-3.3849473E3,5.0319387E4,-4.0745012E3,5.4719367E4,-1.0579395E4,1.14816875E4,-2.195555E4,-6.317479E4,-2.1777166E4,-8.561723E3,2.136662E3,5.4626734E4,5.103527E4,-1.5893997E4],"categories":[],"categories_nodes":[],"categories_segments":[],"categories_sizes":[],"default_left":[0,0,0,0,0,0,0,0,0,0,0,0,0,0,0,0,0,0,0,0,0,0,0,0,0,0,0,0,0,0,0,0,0,0,0,0,0,0,0,0,0,0,0,0,0,0,0,0,0,0,0,0,0,0,0,0,0,0,0,0,0,0,0],"id":18,"left_children":[1,3,5,7,9,11,13,15,17,19,21,23,25,27,29,31,33,35,37,39,41,43,45,47,49,51,53,55,57,59,61,-1,-1,-1,-1,-1,-1,-1,-1,-1,-1,-1,-1,-1,-1,-1,-1,-1,-1,-1,-1,-1,-1,-1,-1,-1,-1,-1,-1,-1,-1,-1,-1],"loss_changes":[7.7645726E12,8.3704613E12,2.4725857E12,6.0112104E12,5.602335E12,1.1456528E12,2.1232086E12,1.1256744E13,3.1417445E12,5.610583E12,2.5463953E12,1.1982278E12,6.236676E11,1.0963166E12,3.0373464E12,3.71074E12,1.6805214E13,3.5189988E12,1.933965E12,3.3830978E11,1.6211866E12,1.903906E12,2.8303253E12,1.6074611E12,6.902241E11,1.6524722E12,5.047609E11,5.637834E11,7.390458E11,2.36639E12,4.572534E11,0E0,0E0,0E0,0E0,0E0,0E0,0E0,0E0,0E0,0E0,0E0,0E0,0E0,0E0,0E0,0E0,0E0,0E0,0E0,0E0,0E0,0E0,0E0,0E0,0E0,0E0,0E0,0E0,0E0,0E0,0E0,0E0],"parents":[2147483647,0,0,1,1,2,2,3,3,4,4,5,5,6,6,7,7,8,8,9,9,10,10,11,11,12,12,13,13,14,14,15,15,16,16,17,17,18,18,19,19,20,20,21,21,22,22,23,23,24,24,25,25,26,26,27,27,28,28,29,29,30,30],"right_children":[2,4,6,8,10,12,14,16,18,20,22,24,26,28,30,32,34,36,38,40,42,44,46,48,50,52,54,56,58,60,62,-1,-1,-1,-1,-1,-1,-1,-1,-1,-1,-1,-1,-1,-1,-1,-1,-1,-1,-1,-1,-1,-1,-1,-1,-1,-1,-1,-1,-1,-1,-1,-1],"split_conditions":[5E-1,1.6044545E-1,2.2351831E-1,-1.4285715E-1,5.528824E-2,0E0,8.917389E-1,-5.4707575E-1,1.0952381E0,4.6840054E-1,1.3804772E0,-1.904762E-1,6.885951E-1,-8.4273916E-1,0E0,5.272089E-1,-4.0673727E-1,5.714286E-1,-5.7467308E-2,6.1952275E-1,-1E0,4.3555684E4,8.306324E-1,1.7981255E0,1.545744E-1,1.3275905E0,1.4493572E0,8.318327E0,-6.1904764E-1,-9.8075E-1,-2.5359454E0,-3.3808347E3,1.5007298E4,1.9543264E4,3.0775562E3,-1.844562E2,-4.7380024E3,-2.730588E3,1.0596938E4,5.34181E3,-4.1181207E4,1.0309818E4,9.4338445E4,9.449165E3,7.693946E4,-5.522153E3,1.04503305E5,2.3282793E3,6.814243E4,-3.3849473E3,5.0319387E4,-4.0745012E3,5.4719367E4,-1.0579395E4,1.14816875E4,-2.195555E4,-6.317479E4,-2.1777166E4,-8.561723E3,2.136662E3,5.4626734E4,5.103527E4,-1.5893997E4],"split_indices":[25,14,34,21,35,2,19,19,21,31,2,21,37,24,27,31,19,21,24,2,1,32,37,31,34,31,14,0,21,14,11,0,0,0,0,0,0,0,0,0,0,0,0,0,0,0,0,0,0,0,0,0,0,0,0,0,0,0,0,0,0,0,0],"split_type":[0,0,0,0,0,0,0,0,0,0,0,0,0,0,0,0,0,0,0,0,0,0,0,0,0,0,0,0,0,0,0,0,0,0,0,0,0,0,0,0,0,0,0,0,0,0,0,0,0,0,0,0,0,0,0,0,0,0,0,0,0,0,0],"sum_hessian":[7.112E4,5.774E4,1.338E4,5.6752E4,9.88E2,1.0088E4,3.292E3,2.6184E4,3.0568E4,1.26E2,8.62E2,5.15E3,4.938E3,3.045E3,2.47E2,9.439E3,1.6745E4,2.867E4,1.898E3,4.1E1,8.5E1,8.26E2,3.6E1,2.182E3,2.968E3,4.075E3,8.63E2,1.64E2,2.881E3,1.28E2,1.19E2,9.009E3,4.3E2,2.786E3,1.3959E4,1.9146E4,9.524E3,5.93E2,1.305E3,3.5E1,6E0,1E1,7.5E1,8.11E2,1.5E1,1.4E1,2.2E1,2.169E3,1.3E1,2.96E3,8E0,4.058E3,1.7E1,8.23E2,4E1,1.51E2,1.3E1,1.68E2,2.713E3,6.3E1,6.5E1,3E0,1.16E2],"tree_param":{"num_deleted":"0","num_feature":"39","num_nodes":"63","size_leaf_vector":"1"}},{"base_weights":[9.838303E1,-9.69943E3,1.0636962E4,-6.968032E3,-3.7433285E4,4.271711E4,2.7057136E3,-2.3846898E4,-2.186933E3,-7.357426E4,-1.1579943E4,-4.5311883E4,6.305331E4,7.400296E2,9.229209E4,-1.4680886E3,-2.9738633E4,-2.2827281E4,2.5200537E3,-1.20559055E5,-6.0913293E4,-3.9841047E4,6.3877188E4,-2.6120434E4,-6.5806945E4,4.943376E4,2.0878447E5,1.324882E4,-1.3000076E4,2.3933617E5,6.3412977E4,1.6857385E2,-3.3294143E3,-1.1378269E4,-4.280742E3,-1.6823618E3,-6.625432E3,1.3552196E2,1.0265304E4,-2.5003938E4,7.654162E4,-1.287617E4,5.0865347E3,-4.3398516E4,-6.6011294E3,4.68631E4,1.866187E3,2.5657537E4,-5.3316206E3,-1.1061527E4,-1.7585191E4,5.4025645E3,2.469081E4,7.483856E4,2.9538205E4,5.3627277E2,8.795013E3,1.9846674E1,-6.4704746E3,1.7455186E4,7.367742E4,3.9135417E3,3.7332758E4],"categories":[],"categories_nodes":[],"categories_segments":[],"categories_sizes":[],"default_left":[0,0,0,0,0,0,0,0,0,0,0,0,0,0,0,0,0,0,0,0,0,0,0,0,0,0,0,0,0,0,0,0,0,0,0,0,0,0,0,0,0,0,0,0,0,0,0,0,0,0,0,0,0,0,0,0,0,0,0,0,0,0,0],"id":19,"left_children":[1,3,5,7,9,11,13,15,17,19,21,23,25,27,29,31,33,35,37,39,41,43,45,47,49,51,53,55,57,59,61,-1,-1,-1,-1,-1,-1,-1,-1,-1,-1,-1,-1,-1,-1,-1,-1,-1,-1,-1,-1,-1,-1,-1,-1,-1,-1,-1,-1,-1,-1,-1,-1],"loss_changes":[7.307771E12,2.778026E12,8.6756295E12,2.6944246E12,3.0713394E12,1.2102652E13,4.814465E12,9.716905E11,2.5280006E12,8.082272E11,4.092683E12,4.9741667E11,1.0888168E13,4.5984383E12,2.4775203E12,5.6561218E10,1.2905889E12,7.781847E11,1.947662E12,1.3375452E12,5.298748E11,1.4702092E12,5.052327E12,1.516587E11,1.27814074E11,8.442037E12,4.627697E12,4.722671E12,3.4118346E12,1.9883544E12,2.74688E12,0E0,0E0,0E0,0E0,0E0,0E0,0E0,0E0,0E0,0E0,0E0,0E0,0E0,0E0,0E0,0E0,0E0,0E0,0E0,0E0,0E0,0E0,0E0,0E0,0E0,0E0,0E0,0E0,0E0,0E0,0E0,0E0],"parents":[2147483647,0,0,1,1,2,2,3,3,4,4,5,5,6,6,7,7,8,8,9,9,10,10,11,11,12,12,13,13,14,14,15,15,16,16,17,17,18,18,19,19,20,20,21,21,22,22,23,23,24,24,25,25,26,26,27,27,28,28,29,29,30,30],"right_children":[2,4,6,8,10,12,14,16,18,20,22,24,26,28,30,32,34,36,38,40,42,44,46,48,50,52,54,56,58,60,62,-1,-1,-1,-1,-1,-1,-1,-1,-1,-1,-1,-1,-1,-1,-1,-1,-1,-1,-1,-1,-1,-1,-1,-1,-1,-1,-1,-1,-1,-1,-1,-1],"split_conditions":[4.6509583E-2,3.6809182E0,-4.3105692E-1,-1.0557669E0,0E0,0E0,1.4493572E0,-8.215528E-1,-9.582312E-1,0E0,8.5714287E-1,2.6506382E-1,-4.4243902E-1,2.5E-1,5.528824E-2,7.1428573E-1,-9.91226E-1,1.1203252E-1,1.0952381E0,1.0316586E0,6.2545E-1,-7.619048E-1,0E0,-1E0,4.7760147E1,8.217481E-1,-5.3467417E-1,3.6809182E0,-2.2262962E-1,7.756603E-1,5.917073E-1,1.6857385E2,-3.3294143E3,-1.1378269E4,-4.280742E3,-1.6823618E3,-6.625432E3,1.3552196E2,1.0265304E4,-2.5003938E4,7.654162E4,-1.287617E4,5.0865347E3,-4.3398516E4,-6.6011294E3,4.68631E4,1.866187E3,2.5657537E4,-5.3316206E3,-1.1061527E4,-1.7585191E4,5.4025645E3,2.469081E4,7.483856E4,2.9538205E4,5.3627277E2,8.795013E3,1.9846674E1,-6.4704746E3,1.7455186E4,7.367742E4,3.9135417E3,3.7332758E4],"split_indices":[7,0,10,7,31,30,14,19,14,13,26,35,10,25,35,26,31,10,21,24,4,21,2,30,8,24,11,0,34,1,10,0,0,0,0,0,0,0,0,0,0,0,0,0,0,0,0,0,0,0,0,0,0,0,0,0,0,0,0,0,0,0,0],"split_type":[0,0,0,0,0,0,0,0,0,0,0,0,0,0,0,0,0,0,0,0,0,0,0,0,0,0,0,0,0,0,0,0,0,0,0,0,0,0,0,0,0,0,0,0,0,0,0,0,0,0,0,0,0,0,0,0,0,0,0,0,0,0,0],"sum_hessian":[7.0772E4,3.6675E4,3.4097E4,3.3388E4,3.287E3,6.758E3,2.7339E4,7.369E3,2.6019E4,1.37E3,1.917E3,1.268E3,5.49E3,2.6753E4,5.86E2,1.536E3,5.833E3,4.831E3,2.1188E4,2.89E2,1.081E3,1.395E3,5.22E2,6.56E2,6.12E2,5.022E3,4.68E2,1.4004E4,1.2749E4,9.5E1,4.91E2,1.338E3,1.98E2,1.212E3,4.621E3,2.157E3,2.674E3,2.0452E4,7.36E2,2.85E2,4E0,1.016E3,6.5E1,4.1E1,1.354E3,1.21E2,4.01E2,5E0,6.51E2,4.57E2,1.55E2,3.938E3,1.084E3,1.11E2,3.57E2,1.0565E4,3.439E3,7.767E3,4.982E3,4.7E1,4.8E1,3.69E2,1.22E2],"tree_param":{"num_deleted":"0","num_feature":"39","num_nodes":"63","size_leaf_vector":"1"}},{"base_weights":[7.869231E1,7.538558E3,-1.1208295E4,-5.0354805E3,4.093656E4,-1.487865E4,1.0061608E4,9.831914E3,-1.4245904E4,2.6831145E4,9.221627E4,-1.042619E4,-3.450597E4,9.054581E3,5.305699E5,2.171096E3,5.2795305E4,-1.5236417E4,1.01208836E5,2.1377441E4,1.4312911E5,-5.651197E4,1.0521266E5,-1.9171312E4,-7.537127E1,-4.843443E4,6.580856E3,8.0224546E3,4.3503672E5,1.2061779E4,1.1394181E5,3.5173674E3,-8.462927E3,7.3350303E3,4.2050547E4,-1.2282527E3,-4.870259E3,5.6036035E4,1.5251211E3,2.7300977E3,1.3748118E4,6.5035926E4,2.383172E4,-8.693807E3,-5.8399043E4,1.6626453E4,3.944906E4,-3.6467976E3,-3.9614555E4,1.951904E4,-5.2557916E2,-3.8064613E4,-8.819282E3,9.0312384E2,1.3993042E5,4.101739E4,1.3127786E3,9.59587E3,1.9375723E5],"categories":[],"categories_nodes":[],"categories_segments":[],"categories_sizes":[],"default_left":[0,0,0,0,0,0,0,0,0,0,0,0,0,0,0,0,0,0,0,0,0,0,0,0,0,0,0,0,0,0,0,0,0,0,0,0,0,0,0,0,0,0,0,0,0,0,0,0,0,0,0,0,0,0,0,0,0,0,0],"id":20,"left_children":[1,3,5,7,9,11,13,15,17,19,21,23,25,27,29,31,33,35,37,39,41,43,45,47,49,51,53,55,57,-1,-1,-1,-1,-1,-1,-1,-1,-1,-1,-1,-1,-1,-1,-1,-1,-1,-1,-1,-1,-1,-1,-1,-1,-1,-1,-1,-1,-1,-1],"loss_changes":[5.9688967E12,1.7923995E13,2.202373E12,4.246221E12,8.441582E12,2.1020651E12,2.1715327E12,3.9040818E12,2.1911799E12,5.804809E12,4.87306E12,1.7751702E12,2.5458036E12,1.8189316E12,1.805834E11,7.391487E12,4.391032E12,1.6745984E12,2.8614648E12,3.1581334E12,1.5418293E12,5.639389E11,4.3946743E12,6.5430566E11,2.3924208E12,1.4081191E12,1.5430286E12,1.0451633E12,2.1314244E12,0E0,0E0,0E0,0E0,0E0,0E0,0E0,0E0,0E0,0E0,0E0,0E0,0E0,0E0,0E0,0E0,0E0,0E0,0E0,0E0,0E0,0E0,0E0,0E0,0E0,0E0,0E0,0E0,0E0,0E0],"parents":[2147483647,0,0,1,1,2,2,3,3,4,4,5,5,6,6,7,7,8,8,9,9,10,10,11,11,12,12,13,13,14,14,15,15,16,16,17,17,18,18,19,19,20,20,21,21,22,22,23,23,24,24,25,25,26,26,27,27,28,28],"right_children":[2,4,6,8,10,12,14,16,18,20,22,24,26,28,30,32,34,36,38,40,42,44,46,48,50,52,54,56,58,-1,-1,-1,-1,-1,-1,-1,-1,-1,-1,-1,-1,-1,-1,-1,-1,-1,-1,-1,-1,-1,-1,-1,-1,-1,-1,-1,-1,-1,-1],"split_conditions":[5E-1,0E0,1.507303E0,-1.904762E-1,6.6076434E-1,3.6809182E0,2.8188417E0,-2.3809524E-1,2.8188417E0,6.530886E-1,-3.2398534E0,8.7041855E-2,7.369656E-1,1.6236593E0,0E0,6.0146344E-1,9.6882313E-1,1.396748E-1,3.6809182E0,8.5714287E-1,-2.4301466E-1,8.5714287E-1,1.169101E0,1.9547565E0,-7.2727275E-1,-7.619048E-1,3.1666023E4,-5.936585E-1,1.9817898E1,1.2061779E4,1.1394181E5,3.5173674E3,-8.462927E3,7.3350303E3,4.2050547E4,-1.2282527E3,-4.870259E3,5.6036035E4,1.5251211E3,2.7300977E3,1.3748118E4,6.5035926E4,2.383172E4,-8.693807E3,-5.8399043E4,1.6626453E4,3.944906E4,-3.6467976E3,-3.9614555E4,1.951904E4,-5.2557916E2,-3.8064613E4,-8.819282E3,9.0312384E2,1.3993042E5,4.101739E4,1.3127786E3,9.59587E3,1.9375723E5],"split_indices":[23,23,2,21,7,0,1,21,1,12,8,19,17,13,0,10,7,10,0,26,19,26,2,7,29,21,33,10,11,0,0,0,0,0,0,0,0,0,0,0,0,0,0,0,0,0,0,0,0,0,0,0,0,0,0,0,0,0,0],"split_type":[0,0,0,0,0,0,0,0,0,0,0,0,0,0,0,0,0,0,0,0,0,0,0,0,0,0,0,0,0,0,0,0,0,0,0,0,0,0,0,0,0,0,0,0,0,0,0,0,0,0,0,0,0,0,0,0,0,0,0],"sum_hessian":[7.0888E4,4.268E4,2.8208E4,3.1007E4,1.1673E4,2.4057E4,4.151E3,1.1861E4,1.9146E4,9.156E3,2.517E3,1.961E4,4.447E3,4.144E3,7E0,1.0067E4,1.794E3,1.8984E4,1.62E2,8.747E3,4.09E2,2.02E2,2.315E3,1.0629E4,8.981E3,3.321E3,1.126E3,4.135E3,9E0,1E0,6E0,7.465E3,2.602E3,1.646E3,1.48E2,1.0012E4,8.972E3,5.3E1,1.09E2,7.63E3,1.117E3,3.7E1,3.72E2,1.94E2,8E0,1.937E3,3.78E2,1.0611E4,1.8E1,2.28E2,8.753E3,6.2E1,3.259E3,1.124E3,2E0,2.4E1,4.111E3,6E0,3E0],"tree_param":{"num_deleted":"0","num_feature":"39","num_nodes":"59","size_leaf_vector":"1"}},{"base_weights":[1.7445374E2,3.633654E3,-2.6290727E4,2.6251812E3,1.0829327E5,-1.6619326E4,-6.3697996E4,-7.6323154E3,1.1050357E4,3.229257E5,8.019924E4,-2.4057383E4,5.366624E3,-7.3403414E4,-7.9570435E3,-5.2996787E3,-3.8077875E4,-3.2267965E4,1.6401156E4,-1.4950978E5,3.9628284E5,-1.3068528E5,1.1517078E5,-1.945925E4,-7.641253E4,2.3100572E5,1.4681895E3,-5.1273652E4,-9.9457445E4,-6.196508E4,1.1262443E5,-5.41329E3,-5.734161E2,-1.2479695E4,-5.462218E2,-2.0531543E3,-9.843688E3,1.4795435E4,2.316174E3,4.1853716E3,-6.29105E4,9.577549E4,2.2878244E4,-5.273358E2,-3.672301E4,3.780206E4,8.428281E3,-3.8921863E3,6.660238E4,-1.7507348E4,1.2611462E4,-8.814426E3,9.170611E4,3.6974414E3,-5.1664385E3,-1.1093637E4,6.5518816E4,-3.420559E4,-1.6157719E4,-6.605635E3,-3.482737E4,7.291963E4,4.1061646E3],"categories":[],"categories_nodes":[],"categories_segments":[],"categories_sizes":[],"default_left":[0,0,0,0,0,0,0,0,0,0,0,0,0,0,0,0,0,0,0,0,0,0,0,0,0,0,0,0,0,0,0,0,0,0,0,0,0,0,0,0,0,0,0,0,0,0,0,0,0,0,0,0,0,0,0,0,0,0,0,0,0,0,0],"id":21,"left_children":[1,3,5,7,9,11,13,15,17,19,21,23,25,27,29,31,33,35,37,39,41,43,45,47,49,51,53,55,57,59,61,-1,-1,-1,-1,-1,-1,-1,-1,-1,-1,-1,-1,-1,-1,-1,-1,-1,-1,-1,-1,-1,-1,-1,-1,-1,-1,-1,-1,-1,-1,-1,-1],"loss_changes":[6.497191E12,6.62444E12,2.966991E12,5.372719E12,3.5860057E12,1.0663627E12,9.109824E11,1.990871E12,7.912136E12,2.4505478E12,3.9311536E12,1.1713784E12,1.450186E12,8.222781E11,1.6415832E12,1.3795827E12,1.8556975E12,1.5099502E12,8.0904087E12,3.0727714E11,1.584196E12,5.73327E11,2.6078342E12,1.05850103E12,7.8592265E11,1.9008018E12,8.056751E11,1.8477473E12,7.9808954E11,5.652356E11,1.874699E12,0E0,0E0,0E0,0E0,0E0,0E0,0E0,0E0,0E0,0E0,0E0,0E0,0E0,0E0,0E0,0E0,0E0,0E0,0E0,0E0,0E0,0E0,0E0,0E0,0E0,0E0,0E0,0E0,0E0,0E0,0E0,0E0],"parents":[2147483647,0,0,1,1,2,2,3,3,4,4,5,5,6,6,7,7,8,8,9,9,10,10,11,11,12,12,13,13,14,14,15,15,16,16,17,17,18,18,19,19,20,20,21,21,22,22,23,23,24,24,25,25,26,26,27,27,28,28,29,29,30,30],"right_children":[2,4,6,8,10,12,14,16,18,20,22,24,26,28,30,32,34,36,38,40,42,44,46,48,50,52,54,56,58,60,62,-1,-1,-1,-1,-1,-1,-1,-1,-1,-1,-1,-1,-1,-1,-1,-1,-1,-1,-1,-1,-1,-1,-1,-1,-1,-1,-1,-1,-1,-1,-1,-1],"split_conditions":[1E0,2.453877E0,2.2351831E-1,-2.138583E-1,0E0,1.2084427E0,7.1428573E-1,3.6809182E0,0E0,9.37471E-2,1E0,1.1421992E0,0E0,3.396569E-1,6.3843346E-1,-1.5806345E0,0E0,0E0,0E0,-2.4094207E0,4.2857143E-1,-9.434221E-1,-1.4285715E-1,9.733272E-1,2.453877E0,6.571058E-1,5.1237994E-1,2.4094207E0,1.18007295E-1,5.8825046E-1,-5.2380955E-1,-5.41329E3,-5.734161E2,-1.2479695E4,-5.462218E2,-2.0531543E3,-9.843688E3,1.4795435E4,2.316174E3,4.1853716E3,-6.29105E4,9.577549E4,2.2878244E4,-5.273358E2,-3.672301E4,3.780206E4,8.428281E3,-3.8921863E3,6.660238E4,-1.7507348E4,1.2611462E4,-8.814426E3,9.170611E4,3.6974414E3,-5.1664385E3,-1.1093637E4,6.5518816E4,-3.420559E4,-1.6157719E4,-6.605635E3,-3.482737E4,7.291963E4,4.1061646E3],"split_indices":[28,7,34,7,0,9,26,0,30,19,0,7,27,7,35,7,31,1,27,1,21,34,26,31,7,19,7,1,19,7,21,0,0,0,0,0,0,0,0,0,0,0,0,0,0,0,0,0,0,0,0,0,0,0,0,0,0,0,0,0,0,0,0],"split_type":[0,0,0,0,0,0,0,0,0,0,0,0,0,0,0,0,0,0,0,0,0,0,0,0,0,0,0,0,0,0,0,0,0,0,0,0,0,0,0,0,0,0,0,0,0,0,0,0,0,0,0,0,0,0,0,0,0,0,0,0,0,0,0],"sum_hessian":[7.0968E4,6.2765E4,8.203E3,6.2167E4,5.98E2,6.519E3,1.684E3,2.8035E4,3.4132E4,6.8E1,5.3E2,4.871E3,1.648E3,1.434E3,2.5E2,2.6041E4,1.994E3,3.752E3,3.038E4,9E0,5.9E1,7.5E1,4.55E2,4.479E3,3.92E2,2.7E1,1.621E3,7.77E2,6.57E2,1.73E2,7.7E1,2.434E3,2.3607E4,1.14E3,8.54E2,1.733E3,2.019E3,2.09E3,2.829E4,5E0,4E0,4.3E1,1.6E1,2.4E1,5.1E1,2.14E2,2.41E2,4.472E3,7E0,3.57E2,3.5E1,1.3E1,1.4E1,9.97E2,6.24E2,7.66E2,1.1E1,1.11E2,5.46E2,1.41E2,3.2E1,1.9E1,5.8E1],"tree_param":{"num_deleted":"0","num_feature":"39","num_nodes":"63","size_leaf_vector":"1"}},{"base_weights":[2.0774992E2,2.4073818E3,-3.0138656E4,1.1652549E3,6.693224E4,-1.1082912E5,-2.302825E4,-5.3623157E2,3.1770707E4,2.1431827E5,4.264945E4,2.171901E3,-1.3890411E5,-2.725649E4,6.3546426E4,-3.721623E3,1.4972217E4,1.7489697E3,5.700942E4,2.5066816E5,-1.9254852E5,2.3144775E4,1.5864062E5,-5.783787E4,4.6867325E5,-1.0501499E5,-2.1007169E5,-2.0672576E4,-8.436564E4,1.0913082E4,3.022353E5,1.2947528E3,-1.7144404E3,-1.6568749E3,4.736801E3,8.127018E2,-2.4686676E4,-5.4823647E3,1.3582206E4,2.6200934E4,7.3447164E4,-5.8525785E4,4.3529263E3,-5.9373344E4,5.751353E3,5.9476402E4,2.1106816E4,3.1177977E4,-1.6400217E4,-4.5012254E4,1.13326336E5,-2.1460666E4,6.558243E4,-1.1332235E4,-4.420662E4,-2.7408005E3,-1.3586581E4,8.598579E3,-1.9832455E4,-3.432654E3,3.9321734E4,1.0849417E5,-2.7729858E2],"categories":[],"categories_nodes":[],"categories_segments":[],"categories_sizes":[],"default_left":[0,0,0,0,0,0,0,0,0,0,0,0,0,0,0,0,0,0,0,0,0,0,0,0,0,0,0,0,0,0,0,0,0,0,0,0,0,0,0,0,0,0,0,0,0,0,0,0,0,0,0,0,0,0,0,0,0,0,0,0,0,0,0],"id":22,"left_children":[1,3,5,7,9,11,13,15,17,19,21,23,25,27,29,31,33,35,37,39,41,43,45,47,49,51,53,55,57,59,61,-1,-1,-1,-1,-1,-1,-1,-1,-1,-1,-1,-1,-1,-1,-1,-1,-1,-1,-1,-1,-1,-1,-1,-1,-1,-1,-1,-1,-1,-1,-1,-1],"loss_changes":[4.722967E12,5.28753E12,2.7410817E12,3.3707126E12,4.4502247E12,1.2280613E12,1.610925E12,3.029293E12,2.5829337E12,2.651229E12,2.4193267E12,2.2106887E12,7.2559834E11,1.5744552E12,2.5721152E12,2.718967E12,2.3349297E12,4.9376595E11,2.0799312E12,2.3535718E12,3.6084554E11,1.9965407E12,1.1017603E12,4.254571E11,8.726337E11,5.869546E11,2.6082096E11,1.2117945E12,1.0126502E12,9.3403506E11,2.9017396E12,0E0,0E0,0E0,0E0,0E0,0E0,0E0,0E0,0E0,0E0,0E0,0E0,0E0,0E0,0E0,0E0,0E0,0E0,0E0,0E0,0E0,0E0,0E0,0E0,0E0,0E0,0E0,0E0,0E0,0E0,0E0,0E0],"parents":[2147483647,0,0,1,1,2,2,3,3,4,4,5,5,6,6,7,7,8,8,9,9,10,10,11,11,12,12,13,13,14,14,15,15,16,16,17,17,18,18,19,19,20,20,21,21,22,22,23,23,24,24,25,25,26,26,27,27,28,28,29,29,30,30],"right_children":[2,4,6,8,10,12,14,16,18,20,22,24,26,28,30,32,34,36,38,40,42,44,46,48,50,52,54,56,58,60,62,-1,-1,-1,-1,-1,-1,-1,-1,-1,-1,-1,-1,-1,-1,-1,-1,-1,-1,-1,-1,-1,-1,-1,-1,-1,-1,-1,-1,-1,-1,-1,-1],"split_conditions":[1.5E0,8.318327E0,-1.25E-1,5.099878E-1,3.8690376E-1,-1.1162262E0,1.2727273E0,1.2084427E0,-9.364388E-1,2.2837281E0,8.5714287E-1,2.101867E0,5.7642317E-1,1.1655356E0,8.5714287E-1,-4.7619048E-1,-2.3759153E-2,1.1562275E0,-4.6910617E-1,1.356864E0,5.3658538E-2,-7.619048E-1,1.1421992E0,-5.8715445E-1,-5.904065E-1,1.9547565E0,1.0223817E-1,3.6809182E0,-5.6601626E-1,0E0,5.917073E-1,1.2947528E3,-1.7144404E3,-1.6568749E3,4.736801E3,8.127018E2,-2.4686676E4,-5.4823647E3,1.3582206E4,2.6200934E4,7.3447164E4,-5.8525785E4,4.3529263E3,-5.9373344E4,5.751353E3,5.9476402E4,2.1106816E4,3.1177977E4,-1.6400217E4,-4.5012254E4,1.13326336E5,-2.1460666E4,6.558243E4,-1.1332235E4,-4.420662E4,-2.7408005E3,-1.3586581E4,8.598579E3,-1.9832455E4,-3.432654E3,3.9321734E4,1.0849417E5,-2.7729858E2],"split_indices":[28,0,25,12,7,14,29,9,14,34,26,7,37,7,26,21,7,34,19,33,10,21,7,10,10,7,19,0,10,14,10,0,0,0,0,0,0,0,0,0,0,0,0,0,0,0,0,0,0,0,0,0,0,0,0,0,0,0,0,0,0,0,0],"split_type":[0,0,0,0,0,0,0,0,0,0,0,0,0,0,0,0,0,0,0,0,0,0,0,0,0,0,0,0,0,0,0,0,0,0,0,0,0,0,0,0,0,0,0,0,0,0,0,0,0,0,0,0,0,0,0,0,0,0,0,0,0,0,0],"sum_hessian":[7.0753E4,6.5972E4,4.781E3,6.4727E4,1.245E3,3.86E2,4.395E3,6.1319E4,3.408E3,1.75E2,1.07E3,7.7E1,3.09E2,4.191E3,2.04E2,5.0871E4,1.0448E4,1.557E3,1.851E3,1.61E2,1.4E1,9.17E2,1.53E2,6.9E1,8E0,2.11E2,9.8E1,3.759E3,4.32E2,1.68E2,3.6E1,1.6803E4,3.4068E4,3.004E3,7.444E3,1.529E3,2.8E1,2.47E2,1.604E3,8.6E1,7.5E1,9E0,5E0,1.7E1,9E2,3.7E1,1.16E2,7E0,6.2E1,1E0,7E0,2.09E2,2E0,1.1E1,8.7E1,3.323E3,4.36E2,5.3E1,3.79E2,1.47E2,2.1E1,1.9E1,1.7E1],"tree_param":{"num_deleted":"0","num_feature":"39","num_nodes":"63","size_leaf_vector":"1"}},{"base_weights":[9.5674664E2,-4.4607168E4,2.3252825E3,-2.809413E4,-1.6105292E5,1.5051762E4,-2.740585E3,-2.3031193E4,-9.941619E4,1.1328822E5,-1.6625381E5,3.4035042E3,7.823177E4,-2.8142896E4,-1.332799E2,-2.8234523E4,2.9628758E4,8.649433E4,-1.2087379E5,-1.7400792E5,4.189829E4,1.819268E4,-1.708478E4,1.5694311E5,-3.3483133E4,-2.4377447E4,-7.5300164E4,4.0299332E4,-3.4657263E3,-3.6878713E3,-9.753681E3,9.167424E3,-6.095093E3,1.240448E5,-2.5340579E3,-8.693398E3,-2.7498783E4,3.0063232E4,-3.512807E4,3.846641E4,-2.9937273E4,-1.5070096E3,1.0448682E4,-1.5661199E3,-1.0379643E4,-1.58259E4,3.9641637E4,-3.5271667E3,-2.4490664E4,-5.0637754E3,1.9438232E4,1.0959709E4,-1.736741E4,5.4261597E3,1.9439223E4,6.050183E2,-2.457094E3],"categories":[],"categories_nodes":[],"categories_segments":[],"categories_sizes":[],"default_left":[0,0,0,0,0,0,0,0,0,0,0,0,0,0,0,0,0,0,0,0,0,0,0,0,0,0,0,0,0,0,0,0,0,0,0,0,0,0,0,0,0,0,0,0,0,0,0,0,0,0,0,0,0,0,0,0,0],"id":23,"left_children":[1,3,5,7,9,11,13,15,17,-1,19,21,23,25,27,29,31,33,35,37,39,41,43,45,47,49,51,53,55,-1,-1,-1,-1,-1,-1,-1,-1,-1,-1,-1,-1,-1,-1,-1,-1,-1,-1,-1,-1,-1,-1,-1,-1,-1,-1,-1,-1],"loss_changes":[4.428678E12,3.977746E12,4.4453577E12,6.531053E11,1.09473746E12,1.4447651E13,3.2665376E12,4.6555254E11,4.8915795E11,0E0,4.204837E11,5.0232217E12,2.6877358E13,8.133804E11,6.0270376E12,3.131306E11,1.6722792E11,7.2592294E11,1.6731721E11,6.33763E11,3.3889763E11,8.949212E12,2.283319E12,2.0484578E13,1.7924066E12,9.4696636E11,6.49507E11,2.509556E12,2.5130227E12,0E0,0E0,0E0,0E0,0E0,0E0,0E0,0E0,0E0,0E0,0E0,0E0,0E0,0E0,0E0,0E0,0E0,0E0,0E0,0E0,0E0,0E0,0E0,0E0,0E0,0E0,0E0,0E0],"parents":[2147483647,0,0,1,1,2,2,3,3,4,4,5,5,6,6,7,7,8,8,10,10,11,11,12,12,13,13,14,14,15,15,16,16,17,17,18,18,19,19,20,20,21,21,22,22,23,23,24,24,25,25,26,26,27,27,28,28],"right_children":[2,4,6,8,10,12,14,16,18,-1,20,22,24,26,28,30,32,34,36,38,40,42,44,46,48,50,52,54,56,-1,-1,-1,-1,-1,-1,-1,-1,-1,-1,-1,-1,-1,-1,-1,-1,-1,-1,-1,-1,-1,-1,-1,-1,-1,-1,-1,-1],"split_conditions":[-7.619048E-1,3.6809182E0,-4.7619048E-1,9.3583703E-1,-2.1300813E-2,5.900813E-1,-2.3809524E-1,5.099878E-1,-8.654508E-1,1.1328822E5,7.906091E-1,-4.3105692E-1,5.917073E-1,1.1421992E0,-1.904762E-1,7.852033E-1,5E-1,-2.3681798E0,-2.5526994E-1,-3.9708078E0,0E0,-5.725203E-1,3.6809182E0,-4.9257454E-1,3.6809182E0,1.6044545E-1,-1.5449505E-1,3.6809182E0,8.4390245E-2,-3.6878713E3,-9.753681E3,9.167424E3,-6.095093E3,1.240448E5,-2.5340579E3,-8.693398E3,-2.7498783E4,3.0063232E4,-3.512807E4,3.846641E4,-2.9937273E4,-1.5070096E3,1.0448682E4,-1.5661199E3,-1.0379643E4,-1.58259E4,3.9641637E4,-3.5271667E3,-2.4490664E4,-5.0637754E3,1.9438232E4,1.0959709E4,-1.736741E4,5.4261597E3,1.9439223E4,6.050183E2,-2.457094E3],"split_indices":[21,0,21,7,10,10,21,12,24,0,14,10,10,7,21,10,23,11,37,32,4,10,0,19,0,14,38,0,10,0,0,0,0,0,0,0,0,0,0,0,0,0,0,0,0,0,0,0,0,0,0,0,0,0,0,0,0],"split_type":[0,0,0,0,0,0,0,0,0,0,0,0,0,0,0,0,0,0,0,0,0,0,0,0,0,0,0,0,0,0,0,0,0,0,0,0,0,0,0,0,0,0,0,0,0,0,0,0,0,0,0,0,0,0,0,0,0],"sum_hessian":[7.102E4,2.07E3,6.895E4,1.814E3,2.56E2,1.9631E4,4.9319E4,1.695E3,1.19E2,1E0,2.55E2,1.6576E4,3.055E3,4.59E3,4.4729E4,1.543E3,1.52E2,1.2E1,1.07E2,2.46E2,9E0,9.627E3,6.949E3,1.792E3,1.263E3,4.252E3,3.38E2,3.405E3,4.1324E4,1.092E3,4.51E2,1.18E2,3.4E1,1E0,1.1E1,2.4E1,8.3E1,5E0,2.41E2,5E0,4E0,5.578E3,4.049E3,5.577E3,1.372E3,2.99E2,1.493E3,1.086E3,1.77E2,4.193E3,5.9E1,3.3E1,3.05E2,2.829E3,5.76E2,2.4105E4,1.7219E4],"tree_param":{"num_deleted":"0","num_feature":"39","num_nodes":"57","size_leaf_vector":"1"}},{"base_weights":[4.5147583E1,-9.1937964E2,5.3540395E4,7.172E3,-7.1372104E3,1.5362684E5,5.1142938E4,-1.300037E4,1.2136575E4,-8.090111E3,8.445012E4,1.2453187E4,8.384902E4,-6.415031E3,-3.1795785E4,4.17557E3,2.7094121E4,-5.7455066E4,-6.83183E3,2.8619722E5,5.9831098E4,6.8711475E3,1.6756942E5,2.3852934E5,6.2275875E4,-2.0354408E3,9.235226E3,-5.4067026E3,-3.674789E4,1.05282E3,-1.5857724E4,4.3847607E3,3.3502664E4,-8.505082E3,-2.6239383E4,-1.8124874E3,2.0555247E3,1.7283752E4,7.876833E4,5.826267E4,7.519489E3,9.555234E3,-1.6895615E3,8.391097E3,8.715641E4,1.0221115E4,6.6337445E4,7.5505914E4,1.1069524E4],"categories":[],"categories_nodes":[],"categories_segments":[],"categories_sizes":[],"default_left":[0,0,0,0,0,0,0,0,0,0,0,0,0,0,0,0,0,0,0,0,0,0,0,0,0,0,0,0,0,0,0,0,0,0,0,0,0,0,0,0,0,0,0,0,0,0,0,0,0],"id":24,"left_children":[1,3,5,7,9,-1,11,13,15,17,19,21,23,25,27,29,31,33,35,37,39,41,43,45,47,-1,-1,-1,-1,-1,-1,-1,-1,-1,-1,-1,-1,-1,-1,-1,-1,-1,-1,-1,-1,-1,-1,-1,-1],"loss_changes":[3.6708072E12,3.5159228E12,2.1948531E12,3.0413294E12,3.4494753E12,0E0,1.5895518E12,7.421936E11,2.9017962E12,2.4289867E12,2.0043706E12,4.9845263E11,2.257602E12,9.861156E11,9.4568225E11,1.7295557E12,5.4878924E12,1.0203507E12,1.6842422E12,1.0092864E12,1.8305227E12,3.7023026E11,6.826957E11,1.5872374E12,9.782433E11,0E0,0E0,0E0,0E0,0E0,0E0,0E0,0E0,0E0,0E0,0E0,0E0,0E0,0E0,0E0,0E0,0E0,0E0,0E0,0E0,0E0,0E0,0E0,0E0],"parents":[2147483647,0,0,1,1,2,2,3,3,4,4,6,6,7,7,8,8,9,9,10,10,11,11,12,12,13,13,14,14,15,15,16,16,17,17,18,18,19,19,20,20,21,21,22,22,23,23,24,24],"right_children":[2,4,6,8,10,-1,12,14,16,18,20,22,24,26,28,30,32,34,36,38,40,42,44,46,48,-1,-1,-1,-1,-1,-1,-1,-1,-1,-1,-1,-1,-1,-1,-1,-1,-1,-1,-1,-1,-1,-1,-1,-1],"split_conditions":[1.2936526E1,-1.25E-1,-8.095238E-1,-5.631758E-1,2.453877E0,1.5362684E5,4.150375E-1,4.2857143E-1,2.6092908E-1,-7.619048E-1,-5.8552843E-1,2.453877E0,3.2037017E-1,5.528824E-2,1.0075498E0,1E0,1.1562275E0,3.6809182E0,5.3497225E-1,-5.904065E-1,0E0,-1.25E-1,1E0,3.0085382E-1,-4.447076E0,-2.0354408E3,9.235226E3,-5.4067026E3,-3.674789E4,1.05282E3,-1.5857724E4,4.3847607E3,3.3502664E4,-8.505082E3,-2.6239383E4,-1.8124874E3,2.0555247E3,1.7283752E4,7.876833E4,5.826267E4,7.519489E3,9.555234E3,-1.6895615E3,8.391097E3,8.715641E4,1.0221115E4,6.6337445E4,7.5505914E4,1.1069524E4],"split_indices":[15,25,21,33,7,0,17,21,31,21,10,7,7,35,7,28,34,0,2,10,0,25,27,7,11,0,0,0,0,0,0,0,0,0,0,0,0,0,0,0,0,0,0,0,0,0,0,0,0],"split_type":[0,0,0,0,0,0,0,0,0,0,0,0,0,0,0,0,0,0,0,0,0,0,0,0,0,0,0,0,0,0,0,0,0,0,0,0,0,0,0,0,0,0,0,0,0,0,0,0,0],"sum_hessian":[7.1141E4,6.9882E4,1.259E3,3.0366E4,3.9516E4,3E0,1.256E3,5.997E3,2.4369E4,3.911E4,4.06E2,5.76E2,6.8E2,4.442E3,1.555E3,1.5905E4,8.464E3,9.71E2,3.8139E4,4.3E1,3.63E2,5.57E2,1.9E1,8.2E1,5.98E2,4.13E3,3.12E2,1.519E3,3.6E1,1.5676E4,2.29E2,8.215E3,2.49E2,8.29E2,1.42E2,3.3309E4,4.83E3,1.7E1,2.6E1,2.8E1,3.35E2,1.49E2,4.08E2,1.4E1,5E0,3E1,5.2E1,8E0,5.9E2],"tree_param":{"num_deleted":"0","num_feature":"39","num_nodes":"49","size_leaf_vector":"1"}},{"base_weights":[-4.1849316E2,-3.2274731E3,1.272369E4,2.8861557E4,-4.9971665E3,1.4261559E3,2.7975518E4,4.8551945E4,-4.5290242E4,-5.5700613E4,-3.1994746E3,1.7674908E4,-1.12921875E4,1.2442349E5,1.6869771E4,2.3583607E4,2.0772933E5,-1.4723675E4,-1.2824725E5,-3.547128E4,-1.2987052E5,3.8119156E4,-4.5695356E3,2.2045345E5,1.5201091E4,-2.432047E3,-3.2941516E4,2.2807616E5,4.9767617E4,1.6210286E5,1.2902123E4,-3.4238225E3,1.1416747E4,2.4676068E4,7.489454E4,-4.2427026E3,1.5169597E4,-2.0497809E4,-3.9671027E4,1.8204501E3,-8.225597E3,-9.831381E3,-2.958247E4,-7.768532E3,1.3450099E4,5.4166754E2,-2.1947422E3,7.831565E4,-1.2698004E3,-6.5706333E3,4.456679E3,-1.0365769E3,4.164527E4,-2.1378037E3,-1.0866246E4,1.354301E5,3.8950867E4,7.2855044E3,5.7071637E4,-9.486594E4,3.416085E4,1.1836232E3,9.87991E3],"categories":[],"categories_nodes":[],"categories_segments":[],"categories_sizes":[],"default_left":[0,0,0,0,0,0,0,0,0,0,0,0,0,0,0,0,0,0,0,0,0,0,0,0,0,0,0,0,0,0,0,0,0,0,0,0,0,0,0,0,0,0,0,0,0,0,0,0,0,0,0,0,0,0,0,0,0,0,0,0,0,0,0],"id":25,"left_children":[1,3,5,7,9,11,13,15,17,19,21,23,25,27,29,31,33,35,37,39,41,43,45,47,49,51,53,55,57,59,61,-1,-1,-1,-1,-1,-1,-1,-1,-1,-1,-1,-1,-1,-1,-1,-1,-1,-1,-1,-1,-1,-1,-1,-1,-1,-1,-1,-1,-1,-1,-1,-1],"loss_changes":[2.6248148E12,3.3268273E12,2.1574294E12,4.472957E12,5.0604246E12,1.4868918E12,5.704864E12,9.613137E12,1.6285738E12,2.8476692E12,3.0355507E12,1.5813206E12,7.740896E11,4.2447038E12,2.7517308E12,3.0578576E12,4.666847E12,3.1702254E11,2.7497674E11,4.71213E11,7.305471E11,4.2254454E12,2.5876924E12,1.5906536E12,1.2004942E12,1.8226073E12,5.945039E11,2.773752E12,9.4335815E11,1.2753028E12,1.2041068E12,0E0,0E0,0E0,0E0,0E0,0E0,0E0,0E0,0E0,0E0,0E0,0E0,0E0,0E0,0E0,0E0,0E0,0E0,0E0,0E0,0E0,0E0,0E0,0E0,0E0,0E0,0E0,0E0,0E0,0E0,0E0,0E0],"parents":[2147483647,0,0,1,1,2,2,3,3,4,4,5,5,6,6,7,7,8,8,9,9,10,10,11,11,12,12,13,13,14,14,15,15,16,16,17,17,18,18,19,19,20,20,21,21,22,22,23,23,24,24,25,25,26,26,27,27,28,28,29,29,30,30],"right_children":[2,4,6,8,10,12,14,16,18,20,22,24,26,28,30,32,34,36,38,40,42,44,46,48,50,52,54,56,58,60,62,-1,-1,-1,-1,-1,-1,-1,-1,-1,-1,-1,-1,-1,-1,-1,-1,-1,-1,-1,-1,-1,-1,-1,-1,-1,-1,-1,-1,-1,-1,-1,-1],"split_conditions":[1.2084427E0,-5.8715445E-1,4.849595E-1,-7.536132E-2,-5.7414633E-1,0E0,5.243318E-1,3.8673103E-2,3.6809182E0,3.6809182E0,-5.6601626E-1,-4.0730295E0,1.545744E-1,-5.2380955E-1,-5.627642E-1,0E0,1.0672463E0,1.507303E0,1E0,-5.8552843E-1,-5.8552843E-1,0E0,0E0,5E-1,0E0,1.6236593E0,2.8700867E-1,-6.8513507E-1,8.4844935E-1,-5.920325E-1,5.3497225E-1,-3.4238225E3,1.1416747E4,2.4676068E4,7.489454E4,-4.2427026E3,1.5169597E4,-2.0497809E4,-3.9671027E4,1.8204501E3,-8.225597E3,-9.831381E3,-2.958247E4,-7.768532E3,1.3450099E4,5.4166754E2,-2.1947422E3,7.831565E4,-1.2698004E3,-6.5706333E3,4.456679E3,-1.0365769E3,4.164527E4,-2.1378037E3,-1.0866246E4,1.354301E5,3.8950867E4,7.2855044E3,5.7071637E4,-9.486594E4,3.416085E4,1.1836232E3,9.87991E3],"split_indices":[9,10,19,24,10,26,19,19,0,0,10,2,34,21,10,30,37,2,25,10,10,30,25,25,30,13,37,37,34,10,2,0,0,0,0,0,0,0,0,0,0,0,0,0,0,0,0,0,0,0,0,0,0,0,0,0,0,0,0,0,0,0,0],"split_type":[0,0,0,0,0,0,0,0,0,0,0,0,0,0,0,0,0,0,0,0,0,0,0,0,0,0,0,0,0,0,0,0,0,0,0,0,0,0,0,0,0,0,0,0,0,0,0,0,0,0,0,0,0,0,0,0,0,0,0,0,0,0,0],"sum_hessian":[7.11E4,5.858E4,1.252E4,3.061E3,5.5519E4,7.193E3,5.327E3,2.419E3,6.42E2,1.9E3,5.3619E4,3.158E3,4.035E3,5.49E2,4.778E3,2.092E3,3.27E2,4.7E2,1.72E2,1.494E3,4.06E2,1.72E3,5.1899E4,3.7E1,3.121E3,2.864E3,1.171E3,2.29E2,3.2E2,1.26E2,4.652E3,9.66E2,1.126E3,2.27E2,1E2,4.37E2,3.3E1,1.35E2,3.7E1,2.02E2,1.292E3,9.2E1,3.14E2,4.92E2,1.228E3,2.4848E4,2.7051E4,2E1,1.7E1,4.28E2,2.693E3,2.827E3,3.7E1,6.03E2,5.68E2,1.1E1,2.18E2,3.06E2,1.4E1,2E0,1.24E2,3.95E3,7.02E2],"tree_param":{"num_deleted":"0","num_feature":"39","num_nodes":"63","size_leaf_vector":"1"}},{"base_weights":[-6.841243E2,-2.8738674E3,1.8729072E4,-3.4940698E3,6.584961E4,9.318372E4,1.3470661E4,-1.5795638E4,-2.351807E2,2.803609E5,1.9612396E4,1.6374717E5,2.8219654E4,-1.0793528E4,2.8086172E4,-1.001333E4,-4.3910746E4,-9.853665E3,5.1315386E3,7.581517E5,2.367153E5,1.3039897E2,2.6174206E5,1.1241316E5,3.386957E5,6.256119E4,-3.719767E4,-1.1506822E4,1.1473948E5,-1.538083E4,4.014663E4,1.0563306E4,-2.3078218E3,-6.370779E3,-2.3388414E4,-5.482341E3,-1.273439E3,1.4773126E4,1.6717058E2,1.9016269E5,1.1068656E4,-9.863275E3,5.2573535E4,-8.664149E3,1.7167414E4,-4.913029E4,5.820878E4,1.230199E4,3.6745926E4,8.811395E4,2.621879E4,4.0783328E3,3.185092E4,-2.6474468E3,-5.1269402E4,-2.8394211E3,1.8940393E4,-1.4306364E3,-1.7429166E4,3.9383313E3,1.8526102E4],"categories":[],"categories_nodes":[],"categories_segments":[],"categories_sizes":[],"default_left":[0,0,0,0,0,0,0,0,0,0,0,0,0,0,0,0,0,0,0,0,0,0,0,0,0,0,0,0,0,0,0,0,0,0,0,0,0,0,0,0,0,0,0,0,0,0,0,0,0,0,0,0,0,0,0,0,0,0,0,0,0],"id":26,"left_children":[1,3,5,7,9,11,13,15,17,19,21,23,25,27,29,31,33,35,37,39,41,43,45,47,49,51,53,55,-1,57,59,-1,-1,-1,-1,-1,-1,-1,-1,-1,-1,-1,-1,-1,-1,-1,-1,-1,-1,-1,-1,-1,-1,-1,-1,-1,-1,-1,-1,-1,-1],"loss_changes":[3.0145168E12,2.7163471E12,2.8129412E12,2.5318853E12,5.647992E12,2.1682368E12,2.3816674E12,2.1498768E12,2.5774226E12,1.9267338E12,2.2170357E12,2.0005703E12,5.5946694E11,1.0937242E12,2.197673E12,1.3523317E12,1.9048699E12,1.0814494E12,9.736178E12,1.2007165E12,9.562541E11,1.7368271E12,7.7880807E11,6.573887E11,1.1455808E12,6.8618125E11,4.568628E11,8.732336E11,0E0,5.4275952E11,3.6073589E12,0E0,0E0,0E0,0E0,0E0,0E0,0E0,0E0,0E0,0E0,0E0,0E0,0E0,0E0,0E0,0E0,0E0,0E0,0E0,0E0,0E0,0E0,0E0,0E0,0E0,0E0,0E0,0E0,0E0,0E0],"parents":[2147483647,0,0,1,1,2,2,3,3,4,4,5,5,6,6,7,7,8,8,9,9,10,10,11,11,12,12,13,13,14,14,15,15,16,16,17,17,18,18,19,19,20,20,21,21,22,22,23,23,24,24,25,25,26,26,27,27,29,29,30,30],"right_children":[2,4,6,8,10,12,14,16,18,20,22,24,26,28,30,32,34,36,38,40,42,44,46,48,50,52,54,56,-1,58,60,-1,-1,-1,-1,-1,-1,-1,-1,-1,-1,-1,-1,-1,-1,-1,-1,-1,-1,-1,-1,-1,-1,-1,-1,-1,-1,-1,-1,-1,-1],"split_conditions":[3.6363637E-1,2.8188417E0,5.4545456E-1,-1.0286933E0,3.5871935E-1,-1.4285715E-1,-8.129485E-1,8.5714287E-1,-4.6910617E-1,-8.2690984E-1,6.2545E-1,1.8551476E0,3.5065383E-1,0E0,-3.6876214E-1,-2.4094207E0,3.6809182E0,-2.682574E-1,-4.145039E-1,3.3333334E-1,-7.3460364E-1,2.453877E0,-3.1995654E-1,-3.809524E-1,-9.411605E-1,5.558532E-1,1.6044545E-1,1.0952381E0,1.1473948E5,3.6809182E0,7.463485E-1,1.0563306E4,-2.3078218E3,-6.370779E3,-2.3388414E4,-5.482341E3,-1.273439E3,1.4773126E4,1.6717058E2,1.9016269E5,1.1068656E4,-9.863275E3,5.2573535E4,-8.664149E3,1.7167414E4,-4.913029E4,5.820878E4,1.230199E4,3.6745926E4,8.811395E4,2.621879E4,4.0783328E3,3.185092E4,-2.6474468E3,-5.1269402E4,-2.8394211E3,1.8940393E4,-1.4306364E3,-1.7429166E4,3.9383313E3,1.8526102E4],"split_indices":[29,1,29,14,7,26,14,26,19,24,4,7,24,18,7,1,0,2,19,22,19,7,19,21,14,19,14,21,0,0,2,0,0,0,0,0,0,0,0,0,0,0,0,0,0,0,0,0,0,0,0,0,0,0,0,0,0,0,0,0,0],"split_type":[0,0,0,0,0,0,0,0,0,0,0,0,0,0,0,0,0,0,0,0,0,0,0,0,0,0,0,0,0,0,0,0,0,0,0,0,0,0,0,0,0,0,0,0,0,0,0,0,0,0,0,0,0,0,0,0,0,0,0,0,0],"sum_hessian":[7.0911E4,6.3724E4,7.187E3,6.3155E4,5.69E2,4.73E2,6.714E3,1.3226E4,4.9929E4,1E2,4.69E2,2.26E2,2.47E2,2.524E3,4.19E3,1.0971E4,2.255E3,1.7881E4,3.2048E4,7E0,9.3E1,4.35E2,3.4E1,1.76E2,5E1,1.62E2,8.5E1,2.522E3,2E0,9.1E2,3.28E3,3.14E2,1.0657E4,1.974E3,2.81E2,2.693E3,1.5188E4,1.812E3,3.0236E4,5E0,2E0,1E1,8.3E1,2.89E2,1.46E2,2E0,3.2E1,1.09E2,6.7E1,3.1E1,1.9E1,1.16E2,4.6E1,7.8E1,7E0,2.452E3,7E1,8.23E2,8.7E1,2.419E3,8.61E2],"tree_param":{"num_deleted":"0","num_feature":"39","num_nodes":"61","size_leaf_vector":"1"}},{"base_weights":[-5.3506077E1,-7.07977E2,6.5317426E4,-3.200034E4,2.4349661E2,3.0621022E5,2.352347E4,-1.9969504E4,-1.1409787E5,9.777347E3,-3.5532107E3,1.487147E5,2.649526E5,-1.4305695E4,1.0735011E5,-1.5541987E4,-9.175809E4,1.3142731E5,-1.2576899E5,9.811951E2,5.7838465E4,5.8714756E3,-9.015931E3,2.0203036E5,5.9545875E5,-2.2048586E4,3.8236994E5,3.3195094E5,5.7065836E4,-3.6076074E3,5.8028706E3,5.7594344E4,-1.90421E4,-2.5869363E4,4.4876047E4,-1.2063937E3,7.023365E3,2.1975094E4,-3.8872334E3,-2.4582393E3,3.0690496E3,-2.2822297E3,5.0711284E3,4.4154707E4,-3.2966938E4,4.728881E4,1.357004E5,-7.919434E3,2.611514E4,1.3241212E5,1.250885E4,1.2554627E5,4.6647473E4,7.4805996E3,9.778524E4],"categories":[],"categories_nodes":[],"categories_segments":[],"categories_sizes":[],"default_left":[0,0,0,0,0,0,0,0,0,0,0,0,0,0,0,0,0,0,0,0,0,0,0,0,0,0,0,0,0,0,0,0,0,0,0,0,0,0,0,0,0,0,0,0,0,0,0,0,0,0,0,0,0,0,0],"id":27,"left_children":[1,3,5,7,9,11,13,15,17,19,21,-1,23,25,27,29,31,-1,33,35,37,39,41,43,45,47,49,51,53,-1,-1,-1,-1,-1,-1,-1,-1,-1,-1,-1,-1,-1,-1,-1,-1,-1,-1,-1,-1,-1,-1,-1,-1,-1,-1],"loss_changes":[3.038564E12,2.0936458E12,7.0805713E12,2.0472031E12,2.470279E12,1.7786974E12,1.9073618E12,5.7419144E11,2.537958E12,8.216992E12,2.5129045E12,0E0,1.8969296E12,1.2830684E12,2.093014E12,2.408778E11,2.9916293E11,0E0,7.672153E11,4.1834974E12,1.3046514E13,3.3198847E12,3.0171393E12,8.4384914E11,3.8452907E11,1.2131393E12,7.224922E11,8.231012E11,1.2517748E12,0E0,0E0,0E0,0E0,0E0,0E0,0E0,0E0,0E0,0E0,0E0,0E0,0E0,0E0,0E0,0E0,0E0,0E0,0E0,0E0,0E0,0E0,0E0,0E0,0E0,0E0],"parents":[2147483647,0,0,1,1,2,2,3,3,4,4,5,5,6,6,7,7,8,8,9,9,10,10,12,12,13,13,14,14,15,15,16,16,18,18,19,19,20,20,21,21,22,22,23,23,24,24,25,25,26,26,27,27,28,28],"right_children":[2,4,6,8,10,12,14,16,18,20,22,-1,24,26,28,30,32,-1,34,36,38,40,42,44,46,48,50,52,54,-1,-1,-1,-1,-1,-1,-1,-1,-1,-1,-1,-1,-1,-1,-1,-1,-1,-1,-1,-1,-1,-1,-1,-1,-1,-1],"split_conditions":[2.8188417E0,-7.619048E-1,7.30651E-2,3.6809182E0,-4.7619048E-1,-8.372333E-1,2.453877E0,1.0328685E0,-2.1300813E-2,5.900813E-1,0E0,1.487147E5,2.7669309E-2,4.4108074E4,-2.5088456E0,6.530886E-1,-8.8850653E-1,1.3142731E5,2.453877E0,1.2959267E0,5.917073E-1,-3.4E-1,1.0952381E0,2E0,-4.2857143E-1,1.967703E-1,5.1869918E-2,-1.0468537E0,9.5772475E-1,-3.6076074E3,5.8028706E3,5.7594344E4,-1.90421E4,-2.5869363E4,4.4876047E4,-1.2063937E3,7.023365E3,2.1975094E4,-3.8872334E3,-2.4582393E3,3.0690496E3,-2.2822297E3,5.0711284E3,4.4154707E4,-3.2966938E4,4.728881E4,1.357004E5,-7.919434E3,2.611514E4,1.3241212E5,1.250885E4,1.2554627E5,4.6647473E4,7.4805996E3,9.778524E4],"split_indices":[1,21,35,0,21,24,7,7,10,10,26,0,2,32,2,12,24,0,7,2,10,10,21,28,26,2,10,14,2,0,0,0,0,0,0,0,0,0,0,0,0,0,0,0,0,0,0,0,0,0,0,0,0,0,0],"split_type":[0,0,0,0,0,0,0,0,0,0,0,0,0,0,0,0,0,0,0,0,0,0,0,0,0,0,0,0,0,0,0,0,0,0,0,0,0,0,0,0,0,0,0,0,0,0,0,0,0,0,0,0,0,0,0],"sum_hessian":[7.102E4,7.0317E4,7.03E2,2.074E3,6.8243E4,1.03E2,6E2,1.81E3,2.64E2,1.9436E4,4.8807E4,7E0,9.6E1,4.14E2,1.86E2,1.706E3,1.04E2,3E0,2.61E2,1.643E4,3.006E3,1.7909E4,3.0898E4,8.2E1,1.4E1,4.07E2,7E0,3.3E1,1.53E2,1.598E3,1.08E2,1E0,1.03E2,2.56E2,5E0,1.3643E4,2.787E3,1.753E3,1.253E3,6.261E3,1.1648E4,2.8643E4,2.255E3,7.7E1,5E0,4E0,1E1,3.64E2,4.3E1,3E0,4E0,6E0,2.7E1,1.48E2,5E0],"tree_param":{"num_deleted":"0","num_feature":"39","num_nodes":"55","size_leaf_vector":"1"}},{"base_weights":[-1.5123564E2,3.5859534E3,-8.478736E3,2.4761785E3,4.797487E4,-5.209443E3,-4.6881375E4,1.7015892E3,4.5968027E4,3.5695418E4,1.6976598E5,-1.1114743E4,2.4443395E4,-3.084935E4,-6.781489E4,-6.7169326E3,5.1402603E3,8.7558414E4,2.5719104E4,2.1478834E4,1.08015445E5,3.551806E5,2.3481018E4,-1.1972203E4,1.563787E5,1.1944786E4,1.2603005E5,-3.7062395E4,1.8105222E5,-1.0672058E5,-4.57784E4,-1.467947E3,2.067233E4,8.945739E2,1.9693502E4,3.048749E4,1.0773017E4,